{"learner":{"attributes":{"scikit_learn":"{\"_estimator_type\": \"classifier\"}"},"feature_names":["Pregnancies","Glucose","BloodPressure","SkinThickness","Insulin","BMI","DiabetesPedigreeFunction","Age"],"feature_types":["int","int","int","int","int","float","float","int"],"gradient_booster":{"model":{"gbtree_model_param":{"num_parallel_tree":"1","num_trees":"200"},"iteration_indptr":[0,1,2,3,4,5,6,7,8,9,10,11,12,13,14,15,16,17,18,19,20,21,22,23,24,25,26,27,28,29,30,31,32,33,34,35,36,37,38,39,40,41,42,43,44,45,46,47,48,49,50,51,52,53,54,55,56,57,58,59,60,61,62,63,64,65,66,67,68,69,70,71,72,73,74,75,76,77,78,79,80,81,82,83,84,85,86,87,88,89,90,91,92,93,94,95,96,97,98,99,100,101,102,103,104,105,106,107,108,109,110,111,112,113,114,115,116,117,118,119,120,121,122,123,124,125,126,127,128,129,130,131,132,133,134,135,136,137,138,139,140,141,142,143,144,145,146,147,148,149,150,151,152,153,154,155,156,157,158,159,160,161,162,163,164,165,166,167,168,169,170,171,172,173,174,175,176,177,178,179,180,181,182,183,184,185,186,187,188,189,190,191,192,193,194,195,196,197,198,199,200],"tree_info":[0,0,0,0,0,0,0,0,0,0,0,0,0,0,0,0,0,0,0,0,0,0,0,0,0,0,0,0,0,0,0,0,0,0,0,0,0,0,0,0,0,0,0,0,0,0,0,0,0,0,0,0,0,0,0,0,0,0,0,0,0,0,0,0,0,0,0,0,0,0,0,0,0,0,0,0,0,0,0,0,0,0,0,0,0,0,0,0,0,0,0,0,0,0,0,0,0,0,0,0,0,0,0,0,0,0,0,0,0,0,0,0,0,0,0,0,0,0,0,0,0,0,0,0,0,0,0,0,0,0,0,0,0,0,0,0,0,0,0,0,0,0,0,0,0,0,0,0,0,0,0,0,0,0,0,0,0,0,0,0,0,0,0,0,0,0,0,0,0,0,0,0,0,0,0,0,0,0,0,0,0,0,0,0,0,0,0,0,0,0,0,0,0,0,0,0,0,0,0,0],"trees":[{"base_weights":[1.4898293E-2,-5.869681E-1,1.0667686E0,-1.1184458E0,2.3315464E-1,2.0614697E-2,1.5465549E0,-1.2872542E-1,-6.502203E-1,-1.1537977E0,6.351013E-1,-7.4745053E-1,7.613255E-1,8.183993E-1,2.1288464E0,-8.1853196E-2,5.7550907E-2,-3.5796724E-2,-1.2570047E-1,-7.6245904E-2,1.0745627E-1,-6.432066E-3,-1.1782279E-1,7.4256146E-3,1.4551319E-1,2.4689695E-2,1.6895728E-1,2.3739736E-1,1.0613308E-1],"categories":[],"categories_nodes":[],"categories_segments":[],"categories_sizes":[],"default_left":[0,0,0,0,0,0,0,0,0,0,0,0,0,0,0,0,0,0,0,0,0,0,0,0,0,0,0,0,0],"id":0,"left_children":[1,3,5,7,9,11,13,-1,15,17,19,21,23,25,27,-1,-1,-1,-1,-1,-1,-1,-1,-1,-1,-1,-1,-1,-1],"loss_changes":[6.693656E1,2.9580767E1,1.9279861E1,2.402748E0,1.5939836E1,8.027977E0,9.436127E0,0E0,3.1287494E0,8.2611084E-2,1.4204627E1,1.9668357E0,3.3096738E0,6.2241955E0,1.1504059E0,0E0,0E0,0E0,0E0,0E0,0E0,0E0,0E0,0E0,0E0,0E0,0E0,0E0,0E0],"parents":[2147483647,0,0,1,1,2,2,3,3,4,4,5,5,6,6,8,8,9,9,10,10,11,11,12,12,13,13,14,14],"right_children":[2,4,6,8,10,12,14,-1,16,18,20,22,24,26,28,-1,-1,-1,-1,-1,-1,-1,-1,-1,-1,-1,-1,-1,-1],"split_conditions":[1.28E2,3.1E1,3E1,2.7E1,2.67E1,1.46E2,4.34E-1,-1.2872542E-1,1.56E2,2.31E1,9.5E1,1.35E2,1.4E1,4.1E1,3.99E1,-8.1853196E-2,5.7550907E-2,-3.5796724E-2,-1.2570047E-1,-7.6245904E-2,1.0745627E-1,-6.432066E-3,-1.1782279E-1,7.4256146E-3,1.4551319E-1,2.4689695E-2,1.6895728E-1,2.3739736E-1,1.0613308E-1],"split_indices":[1,7,5,7,5,1,6,0,4,5,1,1,4,7,5,0,0,0,0,0,0,0,0,0,0,0,0,0,0],"split_type":[0,0,0,0,0,0,0,0,0,0,0,0,0,0,0,0,0,0,0,0,0,0,0,0,0,0,0,0,0],"sum_hessian":[1.0374163E2,6.626668E1,3.747495E1,3.9988514E1,2.6278166E1,1.2110806E1,2.5364143E1,2.8106213E1,1.1882301E1,5.484139E0,2.0794027E1,5.9411507E0,6.1696563E0,1.2339313E1,1.302483E1,1.0739772E1,1.142529E0,1.142529E0,4.34161E0,4.7986217E0,1.5995405E1,2.7420695E0,3.199081E0,3.6560926E0,2.5135636E0,8.226209E0,4.1131043E0,9.597243E0,3.4275868E0],"tree_param":{"num_deleted":"0","num_feature":"8","num_nodes":"29","size_leaf_vector":"1"}},{"base_weights":[6.46934E-2,-6.9660324E-1,1.0604508E0,-1.3618627E-1,-3.6438748E-1,5.868442E-1,1.7214664E0,-9.457358E-1,1.10000424E-1,-6.547173E-1,8.3307016E-1,7.375428E-1,1.9740497E-1,-1.0779941E-1,5.9664577E-2,-2.4005553E-2,1.2101176E-1,-8.984511E-2,1.2390363E-2,2.8118303E-2,1.427015E-1,1.1167059E-1,-3.615135E-2],"categories":[],"categories_nodes":[],"categories_segments":[],"categories_sizes":[],"default_left":[0,0,0,0,0,0,0,0,0,0,0,0,0,0,0,0,0,0,0,0,0,0,0],"id":1,"left_children":[1,3,5,-1,7,9,11,13,15,17,19,21,-1,-1,-1,-1,-1,-1,-1,-1,-1,-1,-1],"loss_changes":[8.061624E1,1.2834801E1,1.3406624E1,0E0,1.1575169E1,9.2109375E0,3.1927185E0,4.477108E0,9.455986E0,1.1078656E0,7.4968204E0,2.6612556E0,0E0,0E0,0E0,0E0,0E0,0E0,0E0,0E0,0E0,0E0,0E0],"parents":[2147483647,0,0,1,1,2,2,4,4,5,5,6,6,7,7,8,8,9,9,10,10,11,11],"right_children":[2,4,6,-1,8,10,12,14,16,18,20,22,-1,-1,-1,-1,-1,-1,-1,-1,-1,-1,-1],"split_conditions":[1.24E2,2.7E1,1.55E2,-1.3618627E-1,1.01E2,2.74E1,2.99E1,1.2E2,7E0,8.4E1,5E0,7.5E1,1.9740497E-1,-1.0779941E-1,5.9664577E-2,-2.4005553E-2,1.2101176E-1,-8.984511E-2,1.2390363E-2,2.8118303E-2,1.427015E-1,1.1167059E-1,-3.615135E-2],"split_indices":[1,5,1,0,1,5,5,4,0,2,0,2,0,0,0,0,0,0,0,0,0,0,0],"split_type":[0,0,0,0,0,0,0,0,0,0,0,0,0,0,0,0,0,0,0,0,0,0,0],"sum_hessian":[1.0437005E2,5.9318836E1,4.5051212E1,1.8724281E1,4.0594555E1,2.7346031E1,1.7705181E1,1.7794424E1,2.280013E1,4.2511525E0,2.309488E1,4.41741E0,1.328777E1,1.6666376E1,1.128048E0,1.7889503E1,4.9106274E0,3.120449E0,1.1307033E0,1.2735038E1,1.0359841E1,3.2724051E0,1.1450049E0],"tree_param":{"num_deleted":"0","num_feature":"8","num_nodes":"23","size_leaf_vector":"1"}},{"base_weights":[-1.6247438E-2,-6.256353E-1,9.02979E-1,-9.331493E-1,8.9209504E-2,4.1624463E-1,1.4519712E0,-1.1615044E0,-4.4995967E-1,-7.876274E-1,4.958726E-1,-9.805659E-2,1.0499367E0,8.418676E-1,1.6687176E0,-1.3424541E-1,-2.1538917E-2,4.0696174E-2,-7.77467E-2,-1.17394485E-1,3.0638358E-2,7.9022855E-2,-2.4327954E-2,-4.7718395E-2,6.1351504E-2,9.753676E-3,1.5064053E-1,1.2943278E-1,-1.6654426E-3,1.7710517E-1,3.7764642E-2],"categories":[],"categories_nodes":[],"categories_segments":[],"categories_sizes":[],"default_left":[0,0,0,0,0,0,0,0,0,0,0,0,0,0,0,0,0,0,0,0,0,0,0,0,0,0,0,0,0,0,0],"id":2,"left_children":[1,3,5,7,9,11,13,15,17,19,21,23,25,27,29,-1,-1,-1,-1,-1,-1,-1,-1,-1,-1,-1,-1,-1,-1,-1,-1],"loss_changes":[5.800716E1,1.3768623E1,1.0428673E1,4.290043E0,7.3932357E0,7.6925435E0,1.1079178E0,4.673374E0,4.703038E0,3.1527147E0,3.2448013E0,4.0073814E0,4.425765E0,2.740376E0,1.0490761E0,0E0,0E0,0E0,0E0,0E0,0E0,0E0,0E0,0E0,0E0,0E0,0E0,0E0,0E0,0E0,0E0],"parents":[2147483647,0,0,1,1,2,2,3,3,4,4,5,5,6,6,7,7,8,8,9,9,10,10,11,11,12,12,13,13,14,14],"right_children":[2,4,6,8,10,12,14,16,18,20,22,24,26,28,30,-1,-1,-1,-1,-1,-1,-1,-1,-1,-1,-1,-1,-1,-1,-1,-1],"split_conditions":[1.28E2,6E0,1.55E2,1.11E2,1.01E2,4.39E-1,3.28E-1,8E1,1.16E2,3.1E1,1.4E1,3.4E1,3E0,2.43E-1,1.282E0,-1.3424541E-1,-2.1538917E-2,4.0696174E-2,-7.77467E-2,-1.17394485E-1,3.0638358E-2,7.9022855E-2,-2.4327954E-2,-4.7718395E-2,6.1351504E-2,9.753676E-3,1.5064053E-1,1.2943278E-1,-1.6654426E-3,1.7710517E-1,3.7764642E-2],"split_indices":[1,0,1,1,1,6,6,2,1,3,4,3,0,6,6,0,0,0,0,0,0,0,0,0,0,0,0,0,0,0,0],"split_type":[0,0,0,0,0,0,0,0,0,0,0,0,0,0,0,0,0,0,0,0,0,0,0,0,0,0,0,0,0,0,0],"sum_hessian":[1.01545105E2,6.125583E1,4.028928E1,4.2617237E1,1.863859E1,2.2287481E1,1.8001799E1,2.7986845E1,1.4630392E1,5.6086187E0,1.3029972E1,1.2769269E1,9.518211E0,5.9992027E0,1.2002595E1,2.3141918E1,4.844928E0,3.978379E0,1.0652014E1,4.090955E0,1.517664E0,9.269453E0,3.7605188E0,8.545563E0,4.223706E0,3.4770954E0,6.041116E0,3.5962667E0,2.4029357E0,1.0776638E1,1.2259574E0],"tree_param":{"num_deleted":"0","num_feature":"8","num_nodes":"31","size_leaf_vector":"1"}},{"base_weights":[-6.1789993E-2,-6.371851E-1,5.9451E-1,-9.464565E-1,-1.6702437E-1,2.34195E-1,1.1361046E0,-1.0128429E0,8.915557E-3,-1.1619443E-1,1.5292579E-1,-1.6834381E-1,9.9663234E-1,1.7682704E-1,1.3503412E0,-1.1707318E-1,-5.075964E-2,-3.2280475E-2,9.3083814E-2,-3.1064877E-2,1.01206474E-1,1.4212282E-1,-1.4291273E-2,6.8141595E-2,-5.586017E-2,1.4888139E-1,6.3523695E-2],"categories":[],"categories_nodes":[],"categories_segments":[],"categories_sizes":[],"default_left":[0,0,0,0,0,0,0,0,0,0,0,0,0,0,0,0,0,0,0,0,0,0,0,0,0,0,0],"id":3,"left_children":[1,3,5,7,9,11,13,15,-1,-1,17,19,21,23,25,-1,-1,-1,-1,-1,-1,-1,-1,-1,-1,-1,-1],"loss_changes":[3.895197E1,7.826208E0,9.146736E0,2.3527317E0,7.499799E0,9.444054E0,3.6680832E0,1.8792038E0,0E0,0E0,7.0686517E0,3.780879E0,5.326151E0,2.0955193E0,5.781193E-1,0E0,0E0,0E0,0E0,0E0,0E0,0E0,0E0,0E0,0E0,0E0,0E0],"parents":[2147483647,0,0,1,1,2,2,3,3,4,4,5,5,6,6,7,7,10,10,11,11,12,12,13,13,14,14],"right_children":[2,4,6,8,10,12,14,16,-1,-1,18,20,22,24,26,-1,-1,-1,-1,-1,-1,-1,-1,-1,-1,-1,-1],"split_conditions":[1.23E2,3.1E1,1.55E2,4.28E1,2.7E1,4.1E1,2.99E1,3E1,8.915557E-3,-1.1619443E-1,1.08E2,4.29E1,5.5E1,2.6E1,4.8E1,-1.1707318E-1,-5.075964E-2,-3.2280475E-2,9.3083814E-2,-3.1064877E-2,1.01206474E-1,1.4212282E-1,-1.4291273E-2,6.8141595E-2,-5.586017E-2,1.4888139E-1,6.3523695E-2],"split_indices":[1,7,1,5,5,7,5,3,0,0,1,5,7,5,7,0,0,0,0,0,0,0,0,0,0,0,0],"split_type":[0,0,0,0,0,0,0,0,0,0,0,0,0,0,0,0,0,0,0,0,0,0,0,0,0,0,0],"sum_hessian":[1.01144875E2,5.3909847E1,4.7235027E1,3.1907845E1,2.2002003E1,2.9224688E1,1.8010342E1,3.000632E1,1.9015245E0,4.713432E0,1.728857E1,1.9636528E1,9.58816E0,3.6212063E0,1.4389134E1,2.1858435E1,8.147884E0,1.1090958E1,6.1976132E0,1.8181477E1,1.4550511E0,6.8053055E0,2.7828536E0,2.1912205E0,1.4299859E0,1.1148405E1,3.2407293E0],"tree_param":{"num_deleted":"0","num_feature":"8","num_nodes":"27","size_leaf_vector":"1"}},{"base_weights":[-2.7745804E-2,-6.1127573E-1,5.93393E-1,-8.4355795E-1,1.9532855E-1,-3.3322018E-1,7.758652E-1,-1.1404217E0,-4.6019876E-1,-7.624529E-1,6.386202E-1,-1.1346143E-1,2.251367E-1,9.276894E-1,-4.3745315E-1,-1.24851696E-1,9.097776E-3,4.482326E-3,-8.087362E-2,-2.483997E-3,-1.057963E-1,-4.9263787E-2,1.1750549E-1,-3.682377E-2,1.2502651E-1,7.2525345E-2,1.8528543E-1,-8.8218026E-2,4.3773066E-2],"categories":[],"categories_nodes":[],"categories_segments":[],"categories_sizes":[],"default_left":[0,0,0,0,0,0,0,0,0,0,0,0,0,0,0,0,0,0,0,0,0,0,0,0,0,0,0,0,0],"id":4,"left_children":[1,3,5,7,9,11,13,15,17,19,21,-1,23,25,27,-1,-1,-1,-1,-1,-1,-1,-1,-1,-1,-1,-1,-1,-1],"loss_changes":[3.767074E1,1.0200758E1,8.77459E0,4.2296066E0,5.916625E0,4.2764106E0,8.212784E0,3.157505E0,3.5405807E0,9.5503616E-1,6.2143517E0,0E0,4.1895256E0,5.770794E0,2.4851732E0,0E0,0E0,0E0,0E0,0E0,0E0,0E0,0E0,0E0,0E0,0E0,0E0,0E0,0E0],"parents":[2147483647,0,0,1,1,2,2,3,3,4,4,5,5,6,6,7,7,8,8,9,9,10,10,12,12,13,13,14,14],"right_children":[2,4,6,8,10,12,14,16,18,20,22,-1,24,26,28,-1,-1,-1,-1,-1,-1,-1,-1,-1,-1,-1,-1,-1,-1],"split_conditions":[1.21E2,7E0,2.5E1,3.1E1,2.38E-1,2.88E1,5.6E1,4.2E1,3.51E1,4.1E1,1E2,-1.1346143E-1,1.49E2,4.18E1,2.99E1,-1.24851696E-1,9.097776E-3,4.482326E-3,-8.087362E-2,-2.483997E-3,-1.057963E-1,-4.9263787E-2,1.1750549E-1,-3.682377E-2,1.2502651E-1,7.2525345E-2,1.8528543E-1,-8.8218026E-2,4.3773066E-2],"split_indices":[1,0,7,5,6,5,7,7,5,7,1,0,1,5,5,0,0,0,0,0,0,0,0,0,0,0,0,0,0],"split_type":[0,0,0,0,0,0,0,0,0,0,0,0,0,0,0,0,0,0,0,0,0,0,0,0,0,0,0,0,0],"sum_hessian":[1.0193198E2,5.25653E1,4.936668E1,4.0776775E1,1.1788525E1,7.986127E0,4.138055E1,2.186796E1,1.8908813E1,3.5020251E0,8.2865E0,2.855561E0,5.130566E0,3.6987648E1,4.3929043E0,2.009047E1,1.7774913E0,8.076934E0,1.083188E1,1.3117837E0,2.1902413E0,2.6917205E0,5.5947795E0,3.6554646E0,1.4751014E0,3.1810982E1,5.1766653E0,2.9074705E0,1.4854337E0],"tree_param":{"num_deleted":"0","num_feature":"8","num_nodes":"29","size_leaf_vector":"1"}},{"base_weights":[1.2037084E-2,-4.9986896E-1,4.794652E-1,-8.669994E-1,2.2893265E-1,2.5439453E-1,1.2239912E0,-9.522834E-1,3.355778E-2,-2.5721622E-1,1.2442818E0,4.219008E-1,-3.8739493E-1,2.2019148E-3,1.3482962E0,-1.0117634E-1,-1.1419053E-2,5.0144787E-3,-5.6816842E-2,4.0711593E-2,1.4628714E-1,6.182244E-2,-3.5024285E-2,-7.8817226E-2,2.8015882E-2,2.4278805E-2,1.4836988E-1],"categories":[],"categories_nodes":[],"categories_segments":[],"categories_sizes":[],"default_left":[0,0,0,0,0,0,0,0,0,0,0,0,0,0,0,0,0,0,0,0,0,0,0,0,0,0,0],"id":5,"left_children":[1,3,5,7,9,11,13,15,-1,17,19,21,23,-1,25,-1,-1,-1,-1,-1,-1,-1,-1,-1,-1,-1,-1],"loss_changes":[2.5012705E1,1.3551192E1,8.842585E0,3.74465E0,8.962585E0,4.8085938E0,1.8257294E0,1.4519787E0,0E0,1.2392838E0,4.7318077E-1,5.483454E0,2.7529936E0,0E0,1.321928E0,0E0,0E0,0E0,0E0,0E0,0E0,0E0,0E0,0E0,0E0,0E0,0E0],"parents":[2147483647,0,0,1,1,2,2,3,3,4,4,5,5,6,6,7,7,9,9,10,10,11,11,12,12,14,14],"right_children":[2,4,6,8,10,12,14,16,-1,18,20,22,24,-1,26,-1,-1,-1,-1,-1,-1,-1,-1,-1,-1,-1,-1],"split_conditions":[3.1E1,3.1E1,1.44E2,6E0,6.13E-1,3.2E1,1.9E1,8.45E-1,3.355778E-2,7.4E1,6.6E1,5.4E1,1.14E2,2.2019148E-3,2.56E-1,-1.0117634E-1,-1.1419053E-2,5.0144787E-3,-5.6816842E-2,4.0711593E-2,1.4628714E-1,6.182244E-2,-3.5024285E-2,-7.8817226E-2,2.8015882E-2,2.4278805E-2,1.4836988E-1],"split_indices":[7,3,4,0,6,4,3,6,0,2,4,7,4,0,6,0,0,0,0,0,0,0,0,0,0,0,0],"split_type":[0,0,0,0,0,0,0,0,0,0,0,0,0,0,0,0,0,0,0,0,0,0,0,0,0,0,0],"sum_hessian":[1.0253188E2,4.8904495E1,5.3627388E1,3.239569E1,1.6508804E1,4.2209206E1,1.1418181E1,3.0444752E1,1.9509406E0,1.1668569E1,4.840235E0,3.374454E1,8.464664E0,1.1804937E0,1.0237687E1,2.8233763E1,2.2109892E0,6.2899747E0,5.3785944E0,1.5948112E0,3.245424E0,2.7062922E1,6.681621E0,5.1762986E0,3.2883663E0,1.4218584E0,8.815829E0],"tree_param":{"num_deleted":"0","num_feature":"8","num_nodes":"27","size_leaf_vector":"1"}},{"base_weights":[-6.525404E-2,-3.9321965E-1,4.9742767E-1,-9.6547043E-1,-1.6086963E-1,-1.6062014E-1,9.5594966E-1,-1.0713974E0,-2.1085975E-1,-5.7491803E-1,-3.2827706E-4,-4.3806776E-1,7.039582E-1,2.2794442E-1,1.2649478E0,-3.524225E-2,-1.229007E-1,1.5792495E-2,-4.3996442E-2,-7.387142E-2,2.7029186E-3,8.199651E-2,-1.2647915E-2,-5.4637473E-2,3.6211234E-2,-2.0795243E-3,1.27577E-1,6.1611004E-2,-2.7762178E-2,6.751501E-2,1.6391335E-1],"categories":[],"categories_nodes":[],"categories_segments":[],"categories_sizes":[],"default_left":[0,0,0,0,0,0,0,0,0,0,0,0,0,0,0,0,0,0,0,0,0,0,0,0,0,0,0,0,0,0,0],"id":6,"left_children":[1,3,5,7,9,11,13,15,17,19,21,23,25,27,29,-1,-1,-1,-1,-1,-1,-1,-1,-1,-1,-1,-1,-1,-1,-1,-1],"loss_changes":[1.8904865E1,8.435263E0,1.1551101E1,1.2494736E0,3.1340523E0,4.2346997E0,4.7519283E0,1.3732147E0,3.666386E-1,1.31884E0,3.7232342E0,1.3251929E0,1.8334651E0,1.7206137E0,2.3162498E0,0E0,0E0,0E0,0E0,0E0,0E0,0E0,0E0,0E0,0E0,0E0,0E0,0E0,0E0,0E0,0E0],"parents":[2147483647,0,0,1,1,2,2,3,3,4,4,5,5,6,6,7,7,8,8,9,9,10,10,11,11,12,12,13,13,14,14],"right_children":[2,4,6,8,10,12,14,16,18,20,22,24,26,28,30,-1,-1,-1,-1,-1,-1,-1,-1,-1,-1,-1,-1,-1,-1,-1,-1],"split_conditions":[5.14E-1,2.5E1,2.9E1,8.4E1,2.09E-1,9.32E-1,1E1,1E0,2.63E-1,4.7E1,2.36E-1,4.3E1,3.1E1,4.3E1,7.6E1,-3.524225E-2,-1.229007E-1,1.5792495E-2,-4.3996442E-2,-7.387142E-2,2.7029186E-3,8.199651E-2,-1.2647915E-2,-5.4637473E-2,3.6211234E-2,-2.0795243E-3,1.27577E-1,6.1611004E-2,-2.7762178E-2,6.751501E-2,1.6391335E-1],"split_indices":[6,7,7,2,6,6,3,0,6,7,6,3,3,7,2,0,0,0,0,0,0,0,0,0,0,0,0,0,0,0,0],"split_type":[0,0,0,0,0,0,0,0,0,0,0,0,0,0,0,0,0,0,0,0,0,0,0,0,0,0,0,0,0,0,0],"sum_hessian":[1.0038313E2,6.360903E1,3.67741E1,1.745765E1,4.6151382E1,1.5368171E1,2.140593E1,1.4940592E1,2.5170581E0,1.2173605E1,3.397778E1,1.2008044E1,3.3601263E0,6.896154E0,1.4509775E1,3.2681527E0,1.1672439E1,1.0835608E0,1.4334974E0,9.391006E0,2.7825985E0,3.7957993E0,3.018198E1,1.0855854E1,1.1521903E0,1.9068663E0,1.4532601E0,3.7773285E0,3.1188257E0,6.7207456E0,7.7890296E0],"tree_param":{"num_deleted":"0","num_feature":"8","num_nodes":"31","size_leaf_vector":"1"}},{"base_weights":[3.4608714E-2,-4.928381E-1,6.3089985E-1,-8.956011E-1,-1.812846E-2,-2.3164684E-1,7.8379333E-1,-9.930139E-1,8.279938E-3,-1.0095898E0,3.1080177E-1,-9.690916E-2,2.2328992E-1,3.0788413E-1,9.721016E-1,-1.0785619E-1,-5.35606E-3,-5.0115842E-2,6.772459E-2,-2.116169E-2,-1.1286066E-1,-1.1768452E-2,8.223324E-2,-2.5697386E-2,1.088863E-1,6.1433613E-2,-7.3795125E-2,1.2707432E-1,6.477525E-2],"categories":[],"categories_nodes":[],"categories_segments":[],"categories_sizes":[],"default_left":[0,0,0,0,0,0,0,0,0,0,0,0,0,0,0,0,0,0,0,0,0,0,0,0,0,0,0,0,0],"id":7,"left_children":[1,3,5,7,9,11,13,15,17,19,21,-1,23,25,27,-1,-1,-1,-1,-1,-1,-1,-1,-1,-1,-1,-1,-1,-1],"loss_changes":[3.1554567E1,1.0169597E1,6.3884735E0,2.5441036E0,8.621345E0,2.8528373E0,3.303978E0,2.0323677E0,1.632274E0,3.862095E-1,4.4568915E0,0E0,2.6380634E0,4.5757337E0,1.9224606E0,0E0,0E0,0E0,0E0,0E0,0E0,0E0,0E0,0E0,0E0,0E0,0E0,0E0,0E0],"parents":[2147483647,0,0,1,1,2,2,3,3,4,4,5,5,6,6,7,7,8,8,9,9,10,10,12,12,13,13,14,14],"right_children":[2,4,6,8,10,12,14,16,18,20,22,-1,24,26,28,-1,-1,-1,-1,-1,-1,-1,-1,-1,-1,-1,-1,-1,-1],"split_conditions":[1.24E2,3E1,2.5E1,8.2E1,2.7E1,2.88E1,3.01E1,4.1E1,1.12E2,3.2E1,1.08E2,-9.690916E-2,1.49E2,5.5E1,7.8E1,-1.0785619E-1,-5.35606E-3,-5.0115842E-2,6.772459E-2,-2.116169E-2,-1.1286066E-1,-1.1768452E-2,8.223324E-2,-2.5697386E-2,1.088863E-1,6.1433613E-2,-7.3795125E-2,1.2707432E-1,6.477525E-2],"split_indices":[1,7,7,2,5,5,5,3,1,7,1,0,1,7,2,0,0,0,0,0,0,0,0,0,0,0,0,0,0],"split_type":[0,0,0,0,0,0,0,0,0,0,0,0,0,0,0,0,0,0,0,0,0,0,0,0,0,0,0,0,0],"sum_hessian":[9.834009E1,5.2274445E1,4.6065643E1,2.7800629E1,2.4473814E1,6.8584857E0,3.9207157E1,2.5006973E1,2.7936568E0,5.581312E0,1.8892502E1,2.185561E0,4.6729245E0,1.1862419E1,2.734474E1,2.2784143E1,2.2228298E0,1.7283278E0,1.065329E0,1.0849664E0,4.496346E0,1.0699743E1,8.192759E0,3.4575937E0,1.2153311E0,9.493276E0,2.3691435E0,1.2717445E1,1.4627295E1],"tree_param":{"num_deleted":"0","num_feature":"8","num_nodes":"29","size_leaf_vector":"1"}},{"base_weights":[-1.5347517E-2,-4.5362875E-1,6.564292E-1,-8.476964E-1,2.6016707E-2,3.08984E-2,8.879761E-1,-9.7488034E-1,-2.8399137E-1,-9.440268E-1,2.5452885E-1,-7.10293E-1,3.0077532E-1,2.4340427E-1,1.1384143E0,-3.3535805E-2,-9.984249E-2,-7.0027426E-2,4.3627232E-2,-1.04042485E-1,-2.6998932E-2,1.123678E-1,3.1681731E-3,-2.1650448E-2,-8.271446E-2,7.173271E-2,-5.417481E-2,-2.8986534E-2,8.791112E-2,1.238274E-1,4.0517125E-2],"categories":[],"categories_nodes":[],"categories_segments":[],"categories_sizes":[],"default_left":[0,0,0,0,0,0,0,0,0,0,0,0,0,0,0,0,0,0,0,0,0,0,0,0,0,0,0,0,0,0,0],"id":8,"left_children":[1,3,5,7,9,11,13,15,17,19,21,23,25,27,29,-1,-1,-1,-1,-1,-1,-1,-1,-1,-1,-1,-1,-1,-1,-1,-1],"loss_changes":[2.9192484E1,1.1359463E1,5.643984E0,2.086071E0,6.4522243E0,2.5368962E0,4.330305E0,6.388855E-2,2.5477493E0,8.005524E-2,4.5099554E0,1.6964555E-2,3.6233103E0,3.3934734E0,9.8347664E-1,0E0,0E0,0E0,0E0,0E0,0E0,0E0,0E0,0E0,0E0,0E0,0E0,0E0,0E0,0E0,0E0],"parents":[2147483647,0,0,1,1,2,2,3,3,4,4,5,5,6,6,7,7,8,8,9,9,10,10,11,11,12,12,13,13,14,14],"right_children":[2,4,6,8,10,12,14,16,18,20,22,24,26,28,30,-1,-1,-1,-1,-1,-1,-1,-1,-1,-1,-1,-1,-1,-1,-1,-1],"split_conditions":[1.28E2,3.1E1,3E1,8E1,2.67E1,2.7E1,2.85E-1,7.9E1,5.26E-1,1.2E2,6.8E1,1.4E2,5.4E1,4.1E1,1.021E0,-3.3535805E-2,-9.984249E-2,-7.0027426E-2,4.3627232E-2,-1.04042485E-1,-2.6998932E-2,1.123678E-1,3.1681731E-3,-2.1650448E-2,-8.271446E-2,7.173271E-2,-5.417481E-2,-2.8986534E-2,8.791112E-2,1.238274E-1,4.0517125E-2],"split_indices":[1,7,5,2,5,7,6,1,6,1,2,1,7,7,6,0,0,0,0,0,0,0,0,0,0,0,0,0,0,0,0],"split_type":[0,0,0,0,0,0,0,0,0,0,0,0,0,0,0,0,0,0,0,0,0,0,0,0,0,0,0,0,0,0,0],"sum_hessian":[9.713875E1,5.8982235E1,3.8156513E1,3.195844E1,2.7023792E1,1.061452E1,2.7541994E1,2.5480158E1,6.478283E0,4.555275E0,2.2468517E1,2.39766E0,8.21686E0,8.258465E0,1.928353E1,1.4460404E0,2.4034117E1,4.1230707E0,2.3552127E0,3.5097537E0,1.0455211E0,3.760282E0,1.8708237E1,1.0047271E0,1.3929329E0,5.597834E0,2.6190262E0,4.7869267E0,3.4715383E0,1.6365908E1,2.9176216E0],"tree_param":{"num_deleted":"0","num_feature":"8","num_nodes":"31","size_leaf_vector":"1"}},{"base_weights":[5.8975887E-2,-7.103691E-1,4.1768888E-1,-1.0647391E0,-4.1484734E-1,-2.0583749E-1,5.885889E-1,-1.1234535E-1,-2.5781168E-2,-8.085472E-1,3.672108E-2,-1.02201045E-1,1.3583408E-1,1.9346896E-1,8.410073E-1,-9.582078E-2,1.0551529E-2,-8.1932776E-2,4.683436E-2,4.3634932E-2,-9.340059E-2,7.334458E-2,-3.2002274E-2,7.074834E-2,1.430136E-1],"categories":[],"categories_nodes":[],"categories_segments":[],"categories_sizes":[],"default_left":[0,0,0,0,0,0,0,0,0,0,0,0,0,0,0,0,0,0,0,0,0,0,0,0,0],"id":9,"left_children":[1,3,5,7,9,11,13,-1,-1,15,17,-1,19,21,23,-1,-1,-1,-1,-1,-1,-1,-1,-1,-1],"loss_changes":[2.7016241E1,2.8212767E0,7.2246046E0,3.5138512E-1,3.3414168E0,4.344437E0,5.0813675E0,0E0,0E0,1.4684238E0,3.9429827E0,0E0,4.109208E0,6.2779064E0,1.4884796E0,0E0,0E0,0E0,0E0,0E0,0E0,0E0,0E0,0E0,0E0],"parents":[2147483647,0,0,1,1,2,2,3,3,4,4,5,5,6,6,9,9,10,10,12,12,13,13,14,14],"right_children":[2,4,6,8,10,12,14,-1,-1,16,18,-1,20,22,24,-1,-1,-1,-1,-1,-1,-1,-1,-1,-1],"split_conditions":[1.09E2,2.7E1,2.81E1,3.77E1,1E2,2.6E1,3.1E1,-1.1234535E-1,-2.5781168E-2,3.82E1,2.52E-1,-1.02201045E-1,6.1E1,2.6E1,4.09E1,-9.582078E-2,1.0551529E-2,-8.1932776E-2,4.683436E-2,4.3634932E-2,-9.340059E-2,7.334458E-2,-3.2002274E-2,7.074834E-2,1.430136E-1],"split_indices":[1,7,5,5,1,7,7,0,0,5,6,0,7,7,5,0,0,0,0,0,0,0,0,0,0],"split_type":[0,0,0,0,0,0,0,0,0,0,0,0,0,0,0,0,0,0,0,0,0,0,0,0,0],"sum_hessian":[9.581899E1,3.01579E1,6.566109E1,1.2529931E1,1.762797E1,1.4081283E1,5.1579807E1,1.1314402E1,1.2155296E0,8.995079E0,8.63289E0,3.5676944E0,1.0513589E1,2.0795034E1,3.0784773E1,7.6880155E0,1.3070638E0,2.5926213E0,6.0402684E0,8.670269E0,1.8433198E0,9.927324E0,1.0867709E1,2.6890936E1,3.8938382E0],"tree_param":{"num_deleted":"0","num_feature":"8","num_nodes":"25","size_leaf_vector":"1"}},{"base_weights":[-8.2520455E-2,-6.1405474E-1,2.6680288E-1,-6.949606E-1,6.263398E-2,-4.4349545E-1,4.4263738E-1,-7.603365E-1,-1.405782E-1,-9.163133E-1,5.169933E-1,2.7307382E-1,1.0463303E0,-8.191496E-2,-1.0142787E-2,-4.7324784E-2,5.293585E-2,-1.0397097E-1,-2.229409E-2,-1.6205478E-2,1.1504125E-1,1.6194243E-2,1.3459353E-1,1.2020274E-1,4.4394047E-3],"categories":[],"categories_nodes":[],"categories_segments":[],"categories_sizes":[],"default_left":[0,0,0,0,0,0,0,0,0,0,0,0,0,0,0,0,0,0,0,0,0,0,0,0,0],"id":10,"left_children":[1,3,5,7,-1,9,11,13,15,17,19,21,23,-1,-1,-1,-1,-1,-1,-1,-1,-1,-1,-1,-1],"loss_changes":[1.7605312E1,4.2040834E0,7.3627486E0,1.1880512E0,0E0,5.871285E0,4.4736443E0,1.1466599E0,1.3639094E0,4.8051643E-1,2.147795E0,4.2712374E0,1.4820356E0,0E0,0E0,0E0,0E0,0E0,0E0,0E0,0E0,0E0,0E0,0E0,0E0],"parents":[2147483647,0,0,1,1,2,2,3,3,5,5,6,6,7,7,8,8,9,9,10,10,11,11,12,12],"right_children":[2,4,6,8,-1,10,12,14,16,18,20,22,24,-1,-1,-1,-1,-1,-1,-1,-1,-1,-1,-1,-1],"split_conditions":[1.13E2,1.127E0,2.79E1,1.14E2,6.263398E-2,1.46E2,7.22E-1,1E1,4E0,2.9E1,1.7E1,4.62E1,2.55E2,-8.191496E-2,-1.0142787E-2,-4.7324784E-2,5.293585E-2,-1.0397097E-1,-2.229409E-2,-1.6205478E-2,1.1504125E-1,1.6194243E-2,1.3459353E-1,1.2020274E-1,4.4394047E-3],"split_indices":[1,6,5,4,0,1,6,0,0,3,3,5,4,0,0,0,0,0,0,0,0,0,0,0,0],"split_type":[0,0,0,0,0,0,0,0,0,0,0,0,0,0,0,0,0,0,0,0,0,0,0,0,0],"sum_hessian":[9.2934364E1,3.655462E1,5.637975E1,3.4729107E1,1.8255122E0,1.08853245E1,4.5494427E1,3.073335E1,3.9957538E0,7.3253045E0,3.5600202E0,3.6652046E1,8.8423815E0,2.7991669E1,2.741682E0,2.8661208E0,1.129633E0,5.7945733E0,1.5307313E0,2.0772703E0,1.4827499E0,3.425474E1,2.3973026E0,7.480271E0,1.3621104E0],"tree_param":{"num_deleted":"0","num_feature":"8","num_nodes":"25","size_leaf_vector":"1"}},{"base_weights":[1.3479662E-2,-8.100614E-1,2.088846E-1,-9.2083424E-1,4.4950403E-2,-2.4825698E-1,4.053426E-1,-9.5981747E-1,-1.6461505E-2,2.7740631E-2,-2.0322079E-2,-4.5492843E-1,6.79186E-1,-2.888091E-1,5.5824465E-1,-2.0155473E-2,-1.00483134E-1,-4.3822406E-3,-8.243508E-2,8.855699E-2,1.7974485E-2,-4.7056314E-2,3.0020615E-2,6.0308542E-2,-6.48806E-2],"categories":[],"categories_nodes":[],"categories_segments":[],"categories_sizes":[],"default_left":[0,0,0,0,0,0,0,0,0,0,0,0,0,0,0,0,0,0,0,0,0,0,0,0,0],"id":11,"left_children":[1,3,5,7,9,11,13,15,-1,-1,-1,17,19,21,23,-1,-1,-1,-1,-1,-1,-1,-1,-1,-1],"loss_changes":[1.5588449E1,1.8011389E0,7.127021E0,3.282833E-1,2.3431765E-1,4.935372E0,6.009431E0,3.2583332E-1,0E0,0E0,0E0,3.052483E0,3.3554602E-1,1.2766199E0,2.853713E0,0E0,0E0,0E0,0E0,0E0,0E0,0E0,0E0,0E0,0E0],"parents":[2147483647,0,0,1,1,2,2,3,3,4,4,5,5,6,6,7,7,11,11,12,12,13,13,14,14],"right_children":[2,4,6,8,10,12,14,16,-1,-1,-1,18,20,22,24,-1,-1,-1,-1,-1,-1,-1,-1,-1,-1],"split_conditions":[1E2,4.3E1,2.8E1,1.072E0,4.8E1,1.55E2,2.17E-1,6.8E1,-1.6461505E-2,2.7740631E-2,-2.0322079E-2,4.9E1,1.4E2,8.2E1,1.394E0,-2.0155473E-2,-1.00483134E-1,-4.3822406E-3,-8.243508E-2,8.855699E-2,1.7974485E-2,-4.7056314E-2,3.0020615E-2,6.0308542E-2,-6.48806E-2],"split_indices":[1,7,7,6,7,1,6,1,0,0,0,4,4,2,6,0,0,0,0,0,0,0,0,0,0],"split_type":[0,0,0,0,0,0,0,0,0,0,0,0,0,0,0,0,0,0,0,0,0,0,0,0,0],"sum_hessian":[9.481691E1,1.7579966E1,7.723694E1,1.5495437E1,2.0845287E0,2.3136515E1,5.4100426E1,1.4479771E1,1.0156665E0,1.0155168E0,1.0690119E0,1.9336948E1,3.7995658E0,9.605244E0,4.4495182E1,1.1183681E0,1.33614025E1,9.681577E0,9.655372E0,2.1415093E0,1.6580564E0,7.493925E0,2.1113186E0,4.338388E1,1.1113038E0],"tree_param":{"num_deleted":"0","num_feature":"8","num_nodes":"25","size_leaf_vector":"1"}},{"base_weights":[-7.0331715E-2,-7.328814E-1,1.0701435E-1,2.4144135E-2,-8.0904543E-1,-5.19956E-2,6.6284996E-1,-9.0461546E-1,-9.6251175E-2,-3.5974932E-1,2.0905988E-1,3.7130746E-1,1.2247781E-1,-1.00429475E-1,-4.593579E-2,2.0109199E-2,-3.4517907E-2,5.7428952E-2,-5.039686E-2,3.78441E-2,-4.6051856E-2,-4.8264902E-2,5.2115034E-2],"categories":[],"categories_nodes":[],"categories_segments":[],"categories_sizes":[],"default_left":[0,0,0,0,0,0,0,0,0,0,0,0,0,0,0,0,0,0,0,0,0,0,0],"id":12,"left_children":[1,3,5,-1,7,9,11,13,15,17,19,21,-1,-1,-1,-1,-1,-1,-1,-1,-1,-1,-1],"loss_changes":[1.0156562E1,1.5487614E0,6.0916247E0,0E0,1.0809231E0,4.430936E0,2.0545754E0,2.0439243E-1,3.022806E-1,3.6907423E0,3.5728161E0,1.7256125E0,0E0,0E0,0E0,0E0,0E0,0E0,0E0,0E0,0E0,0E0,0E0],"parents":[2147483647,0,0,1,1,2,2,4,4,5,5,6,6,7,7,8,8,9,9,10,10,11,11],"right_children":[2,4,6,-1,8,10,12,14,16,18,20,22,-1,-1,-1,-1,-1,-1,-1,-1,-1,-1,-1],"split_conditions":[2.74E1,1.84E1,7.22E-1,2.4144135E-2,2.9E1,3.1E1,7E0,5.86E-1,3.15E-1,5.4E1,8.5E1,2.95E1,1.2247781E-1,-1.00429475E-1,-4.593579E-2,2.0109199E-2,-3.4517907E-2,5.7428952E-2,-5.039686E-2,3.78441E-2,-4.6051856E-2,-4.8264902E-2,5.2115034E-2],"split_indices":[5,5,6,0,3,7,0,6,6,2,2,5,0,0,0,0,0,0,0,0,0,0,0],"split_type":[0,0,0,0,0,0,0,0,0,0,0,0,0,0,0,0,0,0,0,0,0,0,0],"sum_hessian":[8.477093E1,1.7238157E1,6.753277E1,1.0924933E0,1.6145662E1,5.3215633E1,1.4317138E1,1.3999523E1,2.14614E0,2.4249853E1,2.8965782E1,1.0519914E1,3.7972236E0,1.041287E1,3.5866528E0,1.0655333E0,1.0806068E0,2.8446128E0,2.140524E1,2.3464779E1,5.501003E0,1.2388211E0,9.281093E0],"tree_param":{"num_deleted":"0","num_feature":"8","num_nodes":"23","size_leaf_vector":"1"}},{"base_weights":[-6.1132822E-2,-5.02225E-1,1.3623388E-1,-6.731326E-1,1.2557432E-1,7.885669E-2,1.2250813E-1,-2.2795796E-3,-7.174245E-1,-2.5915775E-1,1.0439809E-1,-1.2822643E-1,4.1181427E-1,-1.0767337E-1,-4.99026E-2,7.250276E-2,-7.3074676E-2,7.3668086E-3,-7.298396E-2,5.1890917E-2,-9.595275E-2],"categories":[],"categories_nodes":[],"categories_segments":[],"categories_sizes":[],"default_left":[0,0,0,0,0,0,0,0,0,0,0,0,0,0,0,0,0,0,0,0,0],"id":13,"left_children":[1,3,5,7,9,11,-1,-1,13,15,-1,17,19,-1,-1,-1,-1,-1,-1,-1,-1],"loss_changes":[7.8448977E0,3.0702267E0,3.808053E0,6.1820126E-1,2.6722717E0,4.2201204E0,0E0,0E0,1.0786018E0,3.1250176E0,0E0,4.6725173E0,3.9365118E0,0E0,0E0,0E0,0E0,0E0,0E0,0E0,0E0],"parents":[2147483647,0,0,1,1,2,2,3,3,4,4,5,5,8,8,9,9,11,11,12,12],"right_children":[2,4,6,8,10,12,-1,-1,14,16,-1,18,20,-1,-1,-1,-1,-1,-1,-1,-1],"split_conditions":[2.89E1,8E0,4.83E1,2.4E1,2.79E1,5.28E-1,1.2250813E-1,-2.2795796E-3,6.1E1,7.2E1,1.0439809E-1,3.7E1,4.35E1,-1.0767337E-1,-4.99026E-2,7.250276E-2,-7.3074676E-2,7.3668086E-3,-7.298396E-2,5.1890917E-2,-9.595275E-2],"split_indices":[5,0,5,2,5,6,0,0,2,2,0,3,5,0,0,0,0,0,0,0,0],"split_type":[0,0,0,0,0,0,0,0,0,0,0,0,0,0,0,0,0,0,0,0,0],"sum_hessian":[8.832636E1,2.6826824E1,6.149954E1,2.1029652E1,5.7971725E0,5.9439762E1,2.0597763E0,1.4375029E0,1.959215E1,4.5915375E0,1.2056348E0,3.702619E1,2.241357E1,5.9209213E0,1.3671227E1,1.313308E0,3.2782297E0,2.8379803E1,8.64639E0,2.1366554E1,1.0470159E0],"tree_param":{"num_deleted":"0","num_feature":"8","num_nodes":"21","size_leaf_vector":"1"}},{"base_weights":[-1.0546643E-2,-4.1816893E-1,4.38821E-1,-9.7419834E-1,-2.4565458E-1,3.587404E-2,6.6359204E-1,-1.04530536E-1,-2.7451536E-2,-5.66439E-1,1.809527E-2,3.486223E-1,-4.6197873E-1,7.188381E-2,8.4808815E-1,-7.278498E-2,1.7438007E-4,-2.4273837E-2,6.077385E-2,1.6201556E-3,9.0233974E-2,-9.9786416E-2,-7.902549E-3,-9.2388235E-2,5.0965883E-2,1.0891888E-1,1.9879427E-2],"categories":[],"categories_nodes":[],"categories_segments":[],"categories_sizes":[],"default_left":[0,0,0,0,0,0,0,0,0,0,0,0,0,0,0,0,0,0,0,0,0,0,0,0,0,0,0],"id":14,"left_children":[1,3,5,7,9,11,13,-1,-1,15,17,19,21,23,25,-1,-1,-1,-1,-1,-1,-1,-1,-1,-1,-1,-1],"loss_changes":[1.5920105E1,4.130962E0,3.7214108E0,2.3301792E-1,3.0653236E0,2.6311316E0,2.8305864E0,0E0,0E0,1.498344E0,3.3442602E0,1.8837147E0,1.265491E0,3.6916072E0,2.9298525E0,0E0,0E0,0E0,0E0,0E0,0E0,0E0,0E0,0E0,0E0,0E0,0E0],"parents":[2147483647,0,0,1,1,2,2,3,3,4,4,5,5,6,6,9,9,10,10,11,11,12,12,13,13,14,14],"right_children":[2,4,6,8,10,12,14,-1,-1,16,18,20,22,24,26,-1,-1,-1,-1,-1,-1,-1,-1,-1,-1,-1,-1],"split_conditions":[1.25E2,2.7E1,3.15E-1,6.74E-1,1.04E2,2.43E-1,3E1,-1.04530536E-1,-2.7451536E-2,3.79E1,5.29E-1,2.5E1,2.57E-1,6.1E1,8.4E1,-7.278498E-2,1.7438007E-4,-2.4273837E-2,6.077385E-2,1.6201556E-3,9.0233974E-2,-9.9786416E-2,-7.902549E-3,-9.2388235E-2,5.0965883E-2,1.0891888E-1,1.9879427E-2],"split_indices":[1,5,6,6,1,6,5,0,0,5,6,3,6,2,2,0,0,0,0,0,0,0,0,0,0,0,0],"split_type":[0,0,0,0,0,0,0,0,0,0,0,0,0,0,0,0,0,0,0,0,0,0,0,0,0,0,0],"sum_hessian":[8.491149E1,4.4560238E1,4.0351257E1,9.451178E0,3.5109062E1,1.4864062E1,2.5487194E1,8.130886E0,1.320292E0,1.5323859E1,1.9785202E1,9.313269E0,5.550794E0,6.3883533E0,1.909884E1,1.1714858E1,3.6090016E0,1.4125152E1,5.6600494E0,6.462692E0,2.8505769E0,1.6442318E0,3.906562E0,1.6117809E0,4.776572E0,1.3433219E1,5.665621E0],"tree_param":{"num_deleted":"0","num_feature":"8","num_nodes":"27","size_leaf_vector":"1"}},{"base_weights":[1.6169759E-3,-1.9624905E-1,7.810213E-1,-7.364275E-1,-7.464304E-4,8.548869E-1,-1.6540674E-2,2.7820004E-2,-8.149644E-1,-2.0977235E-1,3.4692073E-1,4.5000955E-1,1.1219267E0,-8.825172E-2,9.031177E-3,-3.2814268E-2,6.354465E-2,1.08277336E-1,1.5191677E-2,6.275429E-3,7.023428E-2,2.9505402E-2,1.2643014E-1],"categories":[],"categories_nodes":[],"categories_segments":[],"categories_sizes":[],"default_left":[0,0,0,0,0,0,0,0,0,0,0,0,0,0,0,0,0,0,0,0,0,0,0],"id":15,"left_children":[1,3,5,7,9,11,-1,-1,13,15,17,19,21,-1,-1,-1,-1,-1,-1,-1,-1,-1,-1],"loss_changes":[1.3245664E1,7.2341256E0,1.3570728E0,1.6773262E0,3.8009682E0,1.2566557E0,0E0,0E0,1.1285343E0,3.4763565E0,2.653677E0,7.518246E-1,7.0388603E-1,0E0,0E0,0E0,0E0,0E0,0E0,0E0,0E0,0E0,0E0],"parents":[2147483647,0,0,1,1,2,2,3,3,4,4,5,5,8,8,9,9,10,10,11,11,12,12],"right_children":[2,4,6,8,10,12,-1,-1,14,16,18,20,22,-1,-1,-1,-1,-1,-1,-1,-1,-1,-1],"split_conditions":[1.55E2,2.79E1,1.282E0,1.82E1,5.03E-1,3.42E-1,-1.6540674E-2,2.7820004E-2,1.43E2,4.07E1,5.43E-1,1.66E2,2.86E1,-8.825172E-2,9.031177E-3,-3.2814268E-2,6.354465E-2,1.08277336E-1,1.5191677E-2,6.275429E-3,7.023428E-2,2.9505402E-2,1.2643014E-1],"split_indices":[1,5,6,5,6,6,0,0,1,5,6,1,5,0,0,0,0,0,0,0,0,0,0],"split_type":[0,0,0,0,0,0,0,0,0,0,0,0,0,0,0,0,0,0,0,0,0,0,0],"sum_hessian":[8.3895546E1,6.7506096E1,1.638945E1,1.720405E1,5.0302044E1,1.5292632E1,1.0968168E0,1.0533544E0,1.6150696E1,3.1662445E1,1.86396E1,7.1449146E0,8.147717E0,1.5052593E1,1.0981016E0,2.8309546E1,3.352899E0,2.9510736E0,1.5688526E1,3.3114836E0,3.833431E0,1.6481433E0,6.4995747E0],"tree_param":{"num_deleted":"0","num_feature":"8","num_nodes":"23","size_leaf_vector":"1"}},{"base_weights":[6.0746383E-2,-1.1098032E-1,7.8891605E-1,-4.7567943E-1,2.2422217E-1,3.021194E-1,1.0038607E0,-7.942051E-1,-2.164901E-1,-3.3391917E-1,3.0997947E-1,5.6011945E-1,-3.6296654E-2,1.0532411E0,2.7887315E-2,-3.452594E-3,-8.652056E-2,-5.329473E-2,3.3997968E-2,-9.165289E-2,5.7565164E-2,9.880548E-2,1.7118491E-2,1.7239258E-2,9.87313E-2,1.5012371E-2,1.13801435E-1],"categories":[],"categories_nodes":[],"categories_segments":[],"categories_sizes":[],"default_left":[0,0,0,0,0,0,0,0,0,0,0,0,0,0,0,0,0,0,0,0,0,0,0,0,0,0,0],"id":16,"left_children":[1,3,5,7,9,11,13,15,17,19,21,23,-1,25,-1,-1,-1,-1,-1,-1,-1,-1,-1,-1,-1,-1,-1],"loss_changes":[1.0857082E1,8.733216E0,1.4292917E0,2.6446595E0,1.8960221E0,1.3190649E0,1.0208416E-1,7.754946E-1,3.7357411E0,3.4258223E0,2.9347584E0,6.709198E-1,0E0,5.94059E-1,0E0,0E0,0E0,0E0,0E0,0E0,0E0,0E0,0E0,0E0,0E0,0E0,0E0],"parents":[2147483647,0,0,1,1,2,2,3,3,4,4,5,5,6,6,7,7,8,8,9,9,10,10,11,11,13,13],"right_children":[2,4,6,8,10,12,14,16,18,20,22,24,-1,26,-1,-1,-1,-1,-1,-1,-1,-1,-1,-1,-1,-1,-1],"split_conditions":[1.55E2,3.1E1,3E-1,2E0,9.5E1,2.43E-1,1.222E0,5E1,5.01E-1,3.1E1,2E0,2.03E-1,-3.6296654E-2,2.5E1,2.7887315E-2,-3.452594E-3,-8.652056E-2,-5.329473E-2,3.3997968E-2,-9.165289E-2,5.7565164E-2,9.880548E-2,1.7118491E-2,1.7239258E-2,9.87313E-2,1.5012371E-2,1.13801435E-1],"split_indices":[1,7,6,0,1,6,6,2,6,3,0,6,0,7,0,0,0,0,0,0,0,0,0,0,0,0,0],"split_type":[0,0,0,0,0,0,0,0,0,0,0,0,0,0,0,0,0,0,0,0,0,0,0,0,0,0,0],"sum_hessian":[8.512441E1,6.956602E1,1.5558397E1,3.3116405E1,3.644961E1,5.502395E0,1.0056002E1,1.3931441E1,1.9184965E1,4.4691167E0,3.1980495E1,4.078203E0,1.4241921E0,8.990846E0,1.0651565E0,1.3177942E0,1.26136465E1,1.2256897E1,6.928068E0,2.7195234E0,1.7495931E0,4.3941617E0,2.7586332E1,2.8736157E0,1.2045873E0,1.0093021E0,7.981543E0],"tree_param":{"num_deleted":"0","num_feature":"8","num_nodes":"27","size_leaf_vector":"1"}},{"base_weights":[6.7769624E-2,-2.241639E-1,8.4662473E-1,-7.962675E-1,-9.486673E-2,3.4867105E-1,1.1091626E0,-9.117679E-2,-1.4341148E-2,-6.7168474E-1,8.116537E-3,-3.3262324E-1,7.9018134E-1,1.2116239E-1,-1.6526526E-3,-8.902572E-2,3.3944514E-2,1.0749726E-2,-6.2369015E-2,-7.0906766E-2,2.3248345E-2,1.0239899E-1,-7.851924E-3],"categories":[],"categories_nodes":[],"categories_segments":[],"categories_sizes":[],"default_left":[0,0,0,0,0,0,0,0,0,0,0,0,0,0,0,0,0,0,0,0,0,0,0],"id":17,"left_children":[1,3,5,7,9,11,13,-1,-1,15,17,19,21,-1,-1,-1,-1,-1,-1,-1,-1,-1,-1],"loss_changes":[1.8263361E1,4.259759E0,2.473753E0,6.737075E-1,2.9125671E0,2.9736648E0,1.619606E0,0E0,0E0,1.9433222E0,2.7364385E0,1.0684249E0,1.2512515E0,0E0,0E0,0E0,0E0,0E0,0E0,0E0,0E0,0E0,0E0],"parents":[2147483647,0,0,1,1,2,2,3,3,4,4,5,5,6,6,9,9,10,10,11,11,12,12],"right_children":[2,4,6,8,10,12,14,-1,-1,16,18,20,22,-1,-1,-1,-1,-1,-1,-1,-1,-1,-1],"split_conditions":[1.42E2,2.63E1,3E-1,1.21E2,9E1,4E0,3.7E2,-9.117679E-2,-1.4341148E-2,6.7E1,8.8E1,1.66E2,1.4E1,1.2116239E-1,-1.6526526E-3,-8.902572E-2,3.3944514E-2,1.0749726E-2,-6.2369015E-2,-7.0906766E-2,2.3248345E-2,1.0239899E-1,-7.851924E-3],"split_indices":[1,5,6,1,1,0,4,0,0,4,2,1,4,0,0,0,0,0,0,0,0,0,0],"split_type":[0,0,0,0,0,0,0,0,0,0,0,0,0,0,0,0,0,0,0,0,0,0,0],"sum_hessian":[7.848836E1,5.7607773E1,2.0880583E1,9.668582E0,4.793919E1,8.012122E0,1.2868461E1,7.8782196E0,1.7903627E0,6.42575E0,4.151344E1,3.2475123E0,4.7646103E0,1.1724908E1,1.143553E0,5.3819046E0,1.0438454E0,3.6588127E1,4.925312E0,1.796217E0,1.4512954E0,3.6133306E0,1.1512794E0],"tree_param":{"num_deleted":"0","num_feature":"8","num_nodes":"23","size_leaf_vector":"1"}},{"base_weights":[-1.3899838E-2,-5.6580144E-1,1.11113325E-1,1.7772352E-2,-6.799966E-1,6.99992E-1,-3.6527842E-2,-9.175183E-1,-2.3290797E-1,8.705457E-1,-1.9511646E-2,-4.343889E-1,1.4107439E-1,-1.00436404E-1,-1.4524984E-2,7.909231E-2,-1.02390565E-1,1.4823859E-2,1.1036346E-1,1.754329E-2,-6.593481E-2,-6.074595E-3,5.4114576E-2],"categories":[],"categories_nodes":[],"categories_segments":[],"categories_sizes":[],"default_left":[0,0,0,0,0,0,0,0,0,0,0,0,0,0,0,0,0,0,0,0,0,0,0],"id":18,"left_children":[1,3,5,-1,7,9,11,13,15,17,-1,19,21,-1,-1,-1,-1,-1,-1,-1,-1,-1,-1],"loss_changes":[5.6097403E0,1.395442E0,5.79715E0,0E0,1.1901989E0,2.208949E0,3.8788817E0,4.1033554E-1,5.609704E0,1.7560854E0,0E0,2.436734E0,3.1097898E0,0E0,0E0,0E0,0E0,0E0,0E0,0E0,0E0,0E0,0E0],"parents":[2147483647,0,0,1,1,2,2,4,4,5,5,6,6,7,7,8,8,9,9,11,11,12,12],"right_children":[2,4,6,-1,8,10,12,14,16,18,-1,20,22,-1,-1,-1,-1,-1,-1,-1,-1,-1,-1],"split_conditions":[2.19E-1,1E0,2.79E-1,1.7772352E-2,3.8E1,1E1,2.99E1,2.05E-1,4.4E1,2.6E1,-1.9511646E-2,3.78E-1,7.09E-1,-1.00436404E-1,-1.4524984E-2,7.909231E-2,-1.02390565E-1,1.4823859E-2,1.1036346E-1,1.754329E-2,-6.593481E-2,-6.074595E-3,5.4114576E-2],"split_indices":[6,0,6,0,7,0,5,6,7,7,0,6,6,0,0,0,0,0,0,0,0,0,0],"split_type":[0,0,0,0,0,0,0,0,0,0,0,0,0,0,0,0,0,0,0,0,0,0,0],"sum_hessian":[7.939532E1,1.4011619E1,6.5383705E1,1.7914122E0,1.2220206E1,1.2356728E1,5.3026974E1,7.293325E0,4.926882E0,1.0402147E1,1.9545809E0,1.5919211E1,3.710776E1,6.2859035E0,1.0074213E0,2.147435E0,2.7794466E0,2.9369528E0,7.465194E0,4.349283E0,1.1569928E1,2.5228922E1,1.187884E1],"tree_param":{"num_deleted":"0","num_feature":"8","num_nodes":"23","size_leaf_vector":"1"}},{"base_weights":[-7.7637928E-3,-6.5980035E-1,1.3419612E-1,-7.6193887E-1,3.0282551E-2,-4.177194E-1,2.2737424E-1,-8.6330646E-1,9.956037E-3,-8.075742E-1,6.5448284E-1,-3.2915935E-1,3.223923E-1,-9.863918E-2,-2.6467475E-3,-3.8859207E-2,-9.6849024E-2,-4.989516E-3,1.01489305E-1,1.28073245E-2,-8.787837E-2,1.9071516E-2,8.444201E-2],"categories":[],"categories_nodes":[],"categories_segments":[],"categories_sizes":[],"default_left":[0,0,0,0,0,0,0,0,0,0,0,0,0,0,0,0,0,0,0,0,0,0,0],"id":19,"left_children":[1,3,5,7,-1,9,11,13,-1,15,17,19,21,-1,-1,-1,-1,-1,-1,-1,-1,-1,-1],"loss_changes":[7.7097197E0,1.6947193E0,3.6148713E0,1.2863545E0,0E0,4.808384E0,3.236997E0,1.2513494E0,0E0,1.600709E-1,8.839512E-1,2.4067435E0,3.3499665E0,0E0,0E0,0E0,0E0,0E0,0E0,0E0,0E0,0E0,0E0],"parents":[2147483647,0,0,1,1,2,2,3,3,5,5,6,6,7,7,9,9,10,10,11,11,12,12],"right_children":[2,4,6,8,-1,10,12,14,-1,16,18,20,22,-1,-1,-1,-1,-1,-1,-1,-1,-1,-1],"split_conditions":[1E2,8.8E1,2.66E1,1E1,3.0282551E-2,1.58E2,2.03E-1,3.82E1,9.956037E-3,2.39E1,6E0,3.39E1,8E0,-9.863918E-2,-2.6467475E-3,-3.8859207E-2,-9.6849024E-2,-4.989516E-3,1.01489305E-1,1.28073245E-2,-8.787837E-2,1.9071516E-2,8.444201E-2],"split_indices":[1,4,5,0,0,1,6,5,0,5,0,5,0,0,0,0,0,0,0,0,0,0,0],"split_type":[0,0,0,0,0,0,0,0,0,0,0,0,0,0,0,0,0,0,0,0,0,0,0],"sum_hessian":[8.1334984E1,1.3889818E1,6.744517E1,1.2745905E1,1.1439137E0,9.238772E0,5.8206394E1,1.1402179E1,1.3437254E0,6.956268E0,2.2825048E0,8.129085E0,5.0077312E1,9.784349E0,1.6178299E0,2.8778894E0,4.0783787E0,1.064205E0,1.2182997E0,4.8561945E0,3.2728896E0,4.1080444E1,8.996866E0],"tree_param":{"num_deleted":"0","num_feature":"8","num_nodes":"23","size_leaf_vector":"1"}},{"base_weights":[9.3959E-3,-4.219469E-1,1.6826977E-1,-9.996675E-2,-9.980475E-2,9.044222E-1,1.08859085E-1,-4.5256707E-1,3.4928676E-1,1.16213355E-2,1.15274005E-1,-4.9529497E-2,4.0867117E-1,-1.5495337E-2,-9.12591E-2,5.94965E-2,-4.2640474E-2,-1.5839553E-2,9.076515E-2,1.1321379E-1,2.1612803E-2],"categories":[],"categories_nodes":[],"categories_segments":[],"categories_sizes":[],"default_left":[0,0,0,0,0,0,0,0,0,0,0,0,0,0,0,0,0,0,0,0,0],"id":20,"left_children":[1,3,5,-1,7,9,11,13,15,-1,-1,17,19,-1,-1,-1,-1,-1,-1,-1,-1],"loss_changes":[5.6681986E0,4.044971E0,2.5434043E0,0E0,2.5991867E0,7.221639E-1,2.7284856E0,1.0997553E0,1.6531072E0,0E0,0E0,4.1253204E0,2.5165544E0,0E0,0E0,0E0,0E0,0E0,0E0,0E0,0E0],"parents":[2147483647,0,0,1,1,2,2,4,4,5,5,6,6,7,7,8,8,11,11,12,12],"right_children":[2,4,6,-1,8,10,12,14,16,-1,-1,18,20,-1,-1,-1,-1,-1,-1,-1,-1],"split_conditions":[1.07E2,2.99E1,4.4E1,-9.996675E-2,4.04E-1,1.2E2,5.28E-1,3.3E1,3.91E1,1.16213355E-2,1.15274005E-1,1.81E2,5.69E-1,-1.5495337E-2,-9.12591E-2,5.94965E-2,-4.2640474E-2,-1.5839553E-2,9.076515E-2,1.1321379E-1,2.1612803E-2],"split_indices":[1,5,2,0,6,1,6,3,5,0,0,1,6,0,0,0,0,0,0,0,0],"split_type":[0,0,0,0,0,0,0,0,0,0,0,0,0,0,0,0,0,0,0,0,0],"sum_hessian":[8.067622E1,2.1270613E1,5.940561E1,6.861753E0,1.4408859E1,3.374108E0,5.60315E1,8.065586E0,6.343273E0,1.1600106E0,2.2140975E0,3.7209034E1,1.8822468E1,5.708982E0,2.3566039E0,4.9944205E0,1.3488526E0,3.4158497E1,3.050535E0,2.9306917E0,1.5891775E1],"tree_param":{"num_deleted":"0","num_feature":"8","num_nodes":"21","size_leaf_vector":"1"}},{"base_weights":[-1.7067503E-2,-4.1117057E-1,1.9375217E-1,-9.3666977E-1,-1.1343308E-1,9.7708106E-2,7.479297E-1,-1.00904636E-1,-1.8241419E-2,-8.0836646E-2,3.7611667E-2,-8.074635E-2,4.3501058E-1,1.1432564E-1,1.4658841E-1,1.926858E-2,-5.8609344E-2,1.18807726E-1,-1.9528959E-2,8.3761804E-2,-3.656929E-5,-4.4307444E-2,4.8886534E-2],"categories":[],"categories_nodes":[],"categories_segments":[],"categories_sizes":[],"default_left":[0,0,0,0,0,0,0,0,0,0,0,0,0,0,0,0,0,0,0,0,0,0,0],"id":21,"left_children":[1,3,5,7,9,11,13,-1,-1,-1,15,17,19,-1,21,-1,-1,-1,-1,-1,-1,-1,-1],"loss_changes":[6.787097E0,4.345885E0,2.7624965E0,3.702221E-1,2.0564296E0,2.8374681E0,1.6674056E0,0E0,0E0,0E0,1.7389057E0,4.779665E0,2.85135E0,0E0,1.0660537E0,0E0,0E0,0E0,0E0,0E0,0E0,0E0,0E0],"parents":[2147483647,0,0,1,1,2,2,3,3,4,4,5,5,6,6,10,10,11,11,12,12,14,14],"right_children":[2,4,6,8,10,12,14,-1,-1,-1,16,18,20,-1,22,-1,-1,-1,-1,-1,-1,-1,-1],"split_conditions":[1.12E2,2.7E1,4.15E1,4E0,2.7E1,4.1E1,4.33E-1,-1.00904636E-1,-1.8241419E-2,-8.0836646E-2,8.6E1,2.4E1,7.8E1,1.1432564E-1,5.72E-1,1.926858E-2,-5.8609344E-2,1.18807726E-1,-1.9528959E-2,8.3761804E-2,-3.656929E-5,-4.4307444E-2,4.8886534E-2],"split_indices":[1,7,5,0,5,7,6,0,0,0,2,2,2,0,6,0,0,0,0,0,0,0,0],"split_type":[0,0,0,0,0,0,0,0,0,0,0,0,0,0,0,0,0,0,0,0,0,0,0],"sum_hessian":[7.9730064E1,2.7455267E1,5.22748E1,9.153541E0,1.8301725E1,4.5555862E1,6.718938E0,8.043866E0,1.1096749E0,2.4906764E0,1.5811049E1,3.0290745E1,1.5265119E1,3.5101554E0,3.2087822E0,1.3216135E1,2.5949144E0,1.7320538E0,2.8558691E1,7.451014E0,7.8141046E0,1.0703423E0,2.13844E0],"tree_param":{"num_deleted":"0","num_feature":"8","num_nodes":"23","size_leaf_vector":"1"}},{"base_weights":[-6.318399E-2,-6.3754374E-1,7.2678976E-2,-7.79165E-1,4.7042858E-2,-2.510978E-1,3.051828E-1,-9.251322E-1,-2.943786E-1,3.6528066E-2,-3.54899E-2,-4.0499452E-1,4.8850843E-1,-8.123945E-2,4.0393072E-1,-1.01123445E-1,-1.0442101E-2,7.188696E-2,-8.75862E-2,7.296519E-3,-6.0785055E-2,-2.0867601E-2,8.561375E-2,-3.3615507E-2,3.813464E-2,6.570242E-2,1.057801E-2],"categories":[],"categories_nodes":[],"categories_segments":[],"categories_sizes":[],"default_left":[0,0,0,0,0,0,0,0,0,0,0,0,0,0,0,0,0,0,0,0,0,0,0,0,0,0,0],"id":22,"left_children":[1,3,5,7,9,11,13,15,17,-1,-1,19,21,23,25,-1,-1,-1,-1,-1,-1,-1,-1,-1,-1,-1,-1],"loss_changes":[6.3336396E0,1.5408931E0,5.049269E0,6.414027E-1,5.904519E-1,3.4028015E0,1.5171165E0,5.6274223E-1,3.2544203E0,0E0,0E0,2.357195E0,1.5378649E0,1.1599531E0,2.2809858E0,0E0,0E0,0E0,0E0,0E0,0E0,0E0,0E0,0E0,0E0,0E0,0E0],"parents":[2147483647,0,0,1,1,2,2,3,3,4,4,5,5,6,6,7,7,8,8,11,11,12,12,13,13,14,14],"right_children":[2,4,6,8,10,12,14,16,18,-1,-1,20,22,24,26,-1,-1,-1,-1,-1,-1,-1,-1,-1,-1,-1,-1],"split_conditions":[1.02E2,4.3E1,3.1E1,3.2E1,9.6E1,1.55E2,2.79E1,1E2,3.5E1,3.6528066E-2,-3.54899E-2,1.4E1,2.77E-1,1.51E2,2.6E1,-1.01123445E-1,-1.0442101E-2,7.188696E-2,-8.75862E-2,7.296519E-3,-6.0785055E-2,-2.0867601E-2,8.561375E-2,-3.3615507E-2,3.813464E-2,6.570242E-2,1.057801E-2],"split_indices":[1,7,7,3,1,1,5,1,3,0,0,3,6,1,3,0,0,0,0,0,0,0,0,0,0,0,0],"split_type":[0,0,0,0,0,0,0,0,0,0,0,0,0,0,0,0,0,0,0,0,0,0,0,0,0,0,0],"sum_hessian":[7.9571106E1,1.4515286E1,6.505582E1,1.191273E1,2.6025565E0,2.7157396E1,3.7898422E1,8.457795E0,3.4549356E0,1.503427E0,1.0991296E0,2.285431E1,4.303088E0,7.7496495E0,3.0148771E1,7.4446225E0,1.0131725E0,1.1736153E0,2.28132E0,7.000464E0,1.5853845E1,1.634928E0,2.6681602E0,5.1725454E0,2.5771039E0,1.56554985E1,1.4493273E1],"tree_param":{"num_deleted":"0","num_feature":"8","num_nodes":"27","size_leaf_vector":"1"}},{"base_weights":[1.4755915E-2,-4.816963E-1,1.08621046E-1,-6.102237E-1,2.0676007E-2,2.8944224E-1,-1.10269226E-1,-7.389355E-1,-5.9538785E-2,1.9804232E-1,9.5453244E-1,-7.748367E-1,8.828169E-2,-9.734154E-3,-8.1431404E-2,2.079566E-2,-2.912165E-2,4.6901487E-2,-9.429353E-3,1.2100919E-2,1.23399034E-1,-9.470254E-2,4.1399263E-3,5.7163056E-2,-9.957925E-3],"categories":[],"categories_nodes":[],"categories_segments":[],"categories_sizes":[],"default_left":[0,0,0,0,0,0,0,0,0,0,0,0,0,0,0,0,0,0,0,0,0,0,0,0,0],"id":23,"left_children":[1,3,5,7,-1,9,11,13,15,17,19,21,23,-1,-1,-1,-1,-1,-1,-1,-1,-1,-1,-1,-1],"loss_changes":[3.6155708E0,1.2183099E0,2.6094732E0,7.111523E-1,0E0,1.9956288E0,4.051235E0,3.3413172E-1,2.5304922E-1,2.6470778E0,8.0112433E-1,1.0294757E0,2.2487504E0,0E0,0E0,0E0,0E0,0E0,0E0,0E0,0E0,0E0,0E0,0E0,0E0],"parents":[2147483647,0,0,1,1,2,2,3,3,5,5,6,6,7,7,8,8,9,9,10,10,11,11,12,12],"right_children":[2,4,6,8,-1,10,12,14,16,18,20,22,24,-1,-1,-1,-1,-1,-1,-1,-1,-1,-1,-1,-1],"split_conditions":[2.64E1,1.32E2,3.2E1,6.72E-1,2.0676007E-2,4.28E1,8.4E1,2.08E1,3.5E1,7.5E1,7.8E1,9.55E-1,6.8E1,-9.734154E-3,-8.1431404E-2,2.079566E-2,-2.912165E-2,4.6901487E-2,-9.429353E-3,1.2100919E-2,1.23399034E-1,-9.470254E-2,4.1399263E-3,5.7163056E-2,-9.957925E-3],"split_indices":[5,4,4,6,0,5,4,5,7,2,2,6,2,0,0,0,0,0,0,0,0,0,0,0,0],"split_type":[0,0,0,0,0,0,0,0,0,0,0,0,0,0,0,0,0,0,0,0,0,0,0,0,0],"sum_hessian":[7.5465294E1,1.1342591E1,6.41227E1,9.65394E0,1.6886516E0,3.493841E1,2.9184288E1,7.5479145E0,2.1060252E0,3.1858088E1,3.0803246E0,6.045847E0,2.3138443E1,1.034448E0,6.5134664E0,1.0249755E0,1.0810497E0,1.6219503E1,1.5638584E1,1.133252E0,1.9470727E0,4.8603077E0,1.185539E0,5.9043236E0,1.7234118E1],"tree_param":{"num_deleted":"0","num_feature":"8","num_nodes":"25","size_leaf_vector":"1"}},{"base_weights":[4.7578927E-2,-3.6869E-1,1.5509833E-1,-7.4796814E-1,9.0961546E-2,1.1324125E-1,1.0490792E-1,6.4412385E-2,-1.02795206E-1,5.8821017E-1,-2.3228669E-1,4.469194E-1,6.800008E-3,-2.2418836E-2,3.6372423E-2,8.91478E-2,-5.6139654E-3,-7.0453145E-2,9.822722E-3,-2.0222178E-2,8.170439E-2,-1.942849E-2,2.3320422E-2],"categories":[],"categories_nodes":[],"categories_segments":[],"categories_sizes":[],"default_left":[0,0,0,0,0,0,0,0,0,0,0,0,0,0,0,0,0,0,0,0,0,0,0],"id":24,"left_children":[1,3,5,7,9,11,-1,13,-1,15,17,19,21,-1,-1,-1,-1,-1,-1,-1,-1,-1,-1],"loss_changes":[3.6586058E0,2.9992497E0,2.3004627E0,2.186225E0,1.5017481E0,2.2303429E0,0E0,3.691942E-1,0E0,7.5920177E-1,9.844647E-1,3.81537E0,2.2619712E0,0E0,0E0,0E0,0E0,0E0,0E0,0E0,0E0,0E0,0E0],"parents":[2147483647,0,0,1,1,2,2,3,3,4,4,5,5,7,7,9,9,10,10,11,11,12,12],"right_children":[2,4,6,8,10,12,-1,14,-1,16,18,20,22,-1,-1,-1,-1,-1,-1,-1,-1,-1,-1],"split_conditions":[2.5E1,3.33E1,4.83E1,1.4E1,1.4E1,6.8E1,1.0490792E-1,6.1E1,-1.02795206E-1,2.3E1,1.22E2,2.99E1,4.1E1,-2.2418836E-2,3.6372423E-2,8.91478E-2,-5.6139654E-3,-7.0453145E-2,9.822722E-3,-2.0222178E-2,8.170439E-2,-1.942849E-2,2.3320422E-2],"split_indices":[7,5,5,3,4,2,0,2,0,7,4,5,7,0,0,0,0,0,0,0,0,0,0],"split_type":[0,0,0,0,0,0,0,0,0,0,0,0,0,0,0,0,0,0,0,0,0,0,0],"sum_hessian":[7.9466156E1,1.5813606E1,6.3652546E1,8.320641E0,7.4929657E0,6.1881847E1,1.7706999E0,2.3300076E0,5.990633E0,2.6290483E0,4.8639174E0,1.419229E1,4.7689556E1,1.3140088E0,1.0159987E0,1.5268801E0,1.1021682E0,1.5366695E0,3.3272476E0,5.3183556E0,8.873935E0,2.5332191E1,2.2357367E1],"tree_param":{"num_deleted":"0","num_feature":"8","num_nodes":"23","size_leaf_vector":"1"}},{"base_weights":[1.8662836E-2,-6.8949796E-2,6.1060935E-1,-6.9116795E-1,2.9193724E-2,7.807888E-1,-2.6848672E-2,-7.854486E-1,3.9083073E-3,-3.3635292E-2,6.3917875E-1,4.4747707E-1,1.0626866E-1,-2.501986E-2,-9.506158E-2,1.5835926E-2,-3.7962884E-2,-1.1435721E-2,9.030237E-2,-4.9464597E-4,8.883282E-2],"categories":[],"categories_nodes":[],"categories_segments":[],"categories_sizes":[],"default_left":[0,0,0,0,0,0,0,0,0,0,0,0,0,0,0,0,0,0,0,0,0],"id":25,"left_children":[1,3,5,7,9,11,-1,13,-1,15,17,19,-1,-1,-1,-1,-1,-1,-1,-1,-1],"loss_changes":[4.1370864E0,4.2751765E0,1.7477612E0,6.870718E-1,2.364841E0,3.5786915E-1,0E0,5.1279926E-1,0E0,3.8056788E0,1.2484112E0,1.1595337E0,0E0,0E0,0E0,0E0,0E0,0E0,0E0,0E0,0E0],"parents":[2147483647,0,0,1,1,2,2,3,3,4,4,5,5,7,7,9,9,10,10,11,11],"right_children":[2,4,6,8,10,12,-1,14,-1,16,18,20,-1,-1,-1,-1,-1,-1,-1,-1,-1],"split_conditions":[1.66E2,2.64E1,5.8E1,1.46E2,4.29E1,3.2E1,-2.6848672E-2,2.3E1,3.9083073E-3,3.44E1,1.08E2,3.8E1,1.0626866E-1,-2.501986E-2,-9.506158E-2,1.5835926E-2,-3.7962884E-2,-1.1435721E-2,9.030237E-2,-4.9464597E-4,8.883282E-2],"split_indices":[1,5,7,1,5,3,0,5,0,5,1,7,0,0,0,0,0,0,0,0,0],"split_type":[0,0,0,0,0,0,0,0,0,0,0,0,0,0,0,0,0,0,0,0,0],"sum_hessian":[7.795926E1,6.867792E1,9.281339E0,8.5335865E0,6.0144333E1,7.869712E0,1.411627E0,7.4908733E0,1.0427129E0,5.5384533E1,4.759799E0,4.7915854E0,3.0781264E0,2.359468E0,5.131405E0,3.596794E1,1.9416592E1,1.3813281E0,3.378471E0,2.8527398E0,1.9388455E0],"tree_param":{"num_deleted":"0","num_feature":"8","num_nodes":"21","size_leaf_vector":"1"}},{"base_weights":[-5.449916E-2,-1.6694248E-1,3.349546E-1,-2.1576948E-1,9.76453E-2,5.5375744E-2,8.532709E-1,-2.9712224E-1,3.6141127E-1,-6.508171E-2,2.6775622E-1,7.624863E-3,1.06511906E-1,-3.367735E-2,5.322233E-2,-2.482335E-4,7.6749794E-2,8.782521E-2,-8.151214E-3],"categories":[],"categories_nodes":[],"categories_segments":[],"categories_sizes":[],"default_left":[0,0,0,0,0,0,0,0,0,0,0,0,0,0,0,0,0,0,0],"id":26,"left_children":[1,3,5,7,-1,9,11,13,15,-1,17,-1,-1,-1,-1,-1,-1,-1,-1],"loss_changes":[3.4842644E0,3.6394558E0,2.5425858E0,2.9115386E0,0E0,2.0758967E0,9.381981E-1,1.9185376E0,1.1587764E0,0E0,2.3011181E0,0E0,0E0,0E0,0E0,0E0,0E0,0E0,0E0],"parents":[2147483647,0,0,1,1,2,2,3,3,5,5,6,6,7,7,8,8,10,10],"right_children":[2,4,6,8,-1,10,12,14,16,-1,18,-1,-1,-1,-1,-1,-1,-1,-1],"split_conditions":[8E0,4.83E1,5.54E-1,1.66E2,9.76453E-2,1.04E2,2.72E1,1.191E0,3.3E1,-6.508171E-2,1.21E2,7.624863E-3,1.06511906E-1,-3.367735E-2,5.322233E-2,-2.482335E-4,7.6749794E-2,8.782521E-2,-8.151214E-3],"split_indices":[0,5,6,1,0,1,5,6,3,0,1,0,0,0,0,0,0,0,0],"split_type":[0,0,0,0,0,0,0,0,0,0,0,0,0,0,0,0,0,0,0],"sum_hessian":[7.728799E1,6.0415985E1,1.6871998E1,5.8719738E1,1.6962488E0,1.1679133E1,5.192865E0,5.1890995E1,6.8287396E0,2.2229946E0,9.456139E0,1.4038194E0,3.7890456E0,5.0090103E1,1.8008937E0,4.1256437E0,2.703096E0,2.890029E0,6.56611E0],"tree_param":{"num_deleted":"0","num_feature":"8","num_nodes":"19","size_leaf_vector":"1"}},{"base_weights":[2.8633326E-2,-3.3177552E-1,1.5909453E-1,-8.04981E-1,3.4801956E-2,-2.5562117E-1,2.513034E-1,-9.749959E-2,-1.2938437E-2,-6.356196E-1,3.2785687E-1,-3.9904244E-2,-8.7007195E-2,1.2682159E-1,5.776086E-1,-7.772277E-2,-1.1889408E-2,1.4220277E-3,1.0599424E-1,2.6911134E-2,-5.8442093E-2,-3.6888234E-3,5.864327E-2,7.794844E-2,-3.6157712E-2],"categories":[],"categories_nodes":[],"categories_segments":[],"categories_sizes":[],"default_left":[0,0,0,0,0,0,0,0,0,0,0,0,0,0,0,0,0,0,0,0,0,0,0,0,0],"id":27,"left_children":[1,3,5,7,9,11,13,-1,-1,15,17,19,-1,21,23,-1,-1,-1,-1,-1,-1,-1,-1,-1,-1],"loss_changes":[3.5430496E0,3.50649E0,2.1742578E0,8.8402796E-1,2.6167204E0,1.3613336E0,1.7808115E0,0E0,0E0,2.0531082E-1,2.0948608E0,1.6453536E0,0E0,2.6041107E0,2.6183233E0,0E0,0E0,0E0,0E0,0E0,0E0,0E0,0E0,0E0,0E0],"parents":[2147483647,0,0,1,1,2,2,3,3,4,4,5,5,6,6,9,9,10,10,11,11,13,13,14,14],"right_children":[2,4,6,8,10,12,14,-1,-1,16,18,20,-1,22,24,-1,-1,-1,-1,-1,-1,-1,-1,-1,-1],"split_conditions":[2.7E1,3.11E1,2.09E-1,3E0,1.09E2,3.4E1,1.45E2,-9.749959E-2,-1.2938437E-2,3.76E1,5.29E-1,1.82E-1,-8.7007195E-2,7.09E-1,3.99E1,-7.772277E-2,-1.1889408E-2,1.4220277E-3,1.0599424E-1,2.6911134E-2,-5.8442093E-2,-3.6888234E-3,5.864327E-2,7.794844E-2,-3.6157712E-2],"split_indices":[7,5,6,0,1,3,1,0,0,5,6,6,0,6,5,0,0,0,0,0,0,0,0,0,0],"split_type":[0,0,0,0,0,0,0,0,0,0,0,0,0,0,0,0,0,0,0,0,0,0,0,0,0],"sum_hessian":[7.3230385E1,1.9052721E1,5.4177666E1,7.794746E0,1.1257975E1,9.532481E0,4.4645184E1,5.8735065E0,1.9212391E0,3.0687208E0,8.189254E0,7.8437114E0,1.6887702E0,3.3321907E1,1.13232765E1,2.0129368E0,1.0557841E0,6.4467793E0,1.7424743E0,5.326614E0,2.5170972E0,2.5248377E1,8.073531E0,9.4599285E0,1.8633484E0],"tree_param":{"num_deleted":"0","num_feature":"8","num_nodes":"25","size_leaf_vector":"1"}},{"base_weights":[-4.2471565E-2,-7.3926456E-2,7.427929E-2,6.432506E-2,-2.622117E-1,-2.7723986E-1,2.4224846E-1,-6.9064784E-1,-7.87781E-3,-1.5408496E-2,-8.578267E-2,3.461723E-2,-5.0290633E-2,-4.5702633E-2,-1.1208492E-1,-2.4640255E-2,6.657042E-2],"categories":[],"categories_nodes":[],"categories_segments":[],"categories_sizes":[],"default_left":[0,0,0,0,0,0,0,0,0,0,0,0,0,0,0,0,0],"id":28,"left_children":[1,3,-1,5,7,9,11,13,15,-1,-1,-1,-1,-1,-1,-1,-1],"loss_changes":[1.9403096E0,1.9509584E0,0E0,2.7196043E0,3.4438524E0,9.700129E-1,2.4377003E0,6.7168045E-1,3.5179076E0,0E0,0E0,0E0,0E0,0E0,0E0,0E0,0E0],"parents":[2147483647,0,0,1,1,3,3,4,4,5,5,6,6,7,7,8,8],"right_children":[2,4,-1,6,8,10,12,14,16,-1,-1,-1,-1,-1,-1,-1,-1],"split_conditions":[4.65E2,4.9E1,7.427929E-2,3E1,1.14E2,6.3E1,1E1,3.6E1,7E0,-1.5408496E-2,-8.578267E-2,3.461723E-2,-5.0290633E-2,-4.5702633E-2,-1.1208492E-1,-2.4640255E-2,6.657042E-2],"split_indices":[4,4,0,5,4,7,0,7,0,0,0,0,0,0,0,0,0],"split_type":[0,0,0,0,0,0,0,0,0,0,0,0,0,0,0,0,0],"sum_hessian":[7.5330635E1,7.330035E1,2.030292E0,4.264553E1,3.0654812E1,1.4414803E1,2.8230728E1,1.0779975E1,1.9874838E1,1.2936161E1,1.4786416E0,2.52453E1,2.985428E0,8.322682E0,2.4572923E0,1.514572E1,4.729118E0],"tree_param":{"num_deleted":"0","num_feature":"8","num_nodes":"17","size_leaf_vector":"1"}},{"base_weights":[-7.376516E-2,-1.1545604E-1,9.6314244E-2,-2.556408E-1,1.11840785E-1,1.2083558E-2,-6.089292E-1,-9.00375E-2,7.481945E-1,-3.010656E-2,3.0503267E-2,-8.61946E-2,9.733572E-3,1.2519966E-2,-7.233736E-2,9.3376674E-2,-1.4925999E-2],"categories":[],"categories_nodes":[],"categories_segments":[],"categories_sizes":[],"default_left":[0,0,0,0,0,0,0,0,0,0,0,0,0,0,0,0,0],"id":29,"left_children":[1,3,-1,5,7,9,11,13,15,-1,-1,-1,-1,-1,-1,-1,-1],"loss_changes":[3.2532737E0,2.2834768E0,0E0,4.1761923E0,3.6247714E0,2.482008E0,3.48286E0,3.0779436E0,1.2679603E0,0E0,0E0,0E0,0E0,0E0,0E0,0E0,0E0],"parents":[2147483647,0,0,1,1,3,3,4,4,5,5,6,6,7,7,8,8],"right_children":[2,4,-1,6,8,10,12,14,16,-1,-1,-1,-1,-1,-1,-1,-1],"split_conditions":[4.83E1,5.14E-1,9.6314244E-2,2.79E-1,8E0,2.19E-1,1.27E2,3.92E1,5.7E1,-3.010656E-2,3.0503267E-2,-8.61946E-2,9.733572E-3,1.2519966E-2,-7.233736E-2,9.3376674E-2,-1.4925999E-2],"split_indices":[5,6,0,6,0,6,4,5,7,0,0,0,0,0,0,0,0],"split_type":[0,0,0,0,0,0,0,0,0,0,0,0,0,0,0,0,0],"sum_hessian":[7.1683395E1,6.976693E1,1.9164608E0,4.3075512E1,2.669142E1,2.5054691E1,1.802082E1,2.0914854E1,5.776565E0,1.2096443E1,1.2958249E1,1.3105422E1,4.915398E0,1.6208698E1,4.7061553E0,4.753246E0,1.0233194E0],"tree_param":{"num_deleted":"0","num_feature":"8","num_nodes":"17","size_leaf_vector":"1"}},{"base_weights":[-1.0699226E-2,-4.4927847E-2,9.14835E-2,3.0668199E-2,-4.4109496E-1,-2.7541295E-1,1.3966049E-1,-7.427979E-1,4.5736316E-1,-5.967735E-2,2.8894722E-2,9.571276E-3,7.090699E-2,-1.1418748E-1,1.0344867E-2,9.954209E-2,-3.1276092E-2],"categories":[],"categories_nodes":[],"categories_segments":[],"categories_sizes":[],"default_left":[0,0,0,0,0,0,0,0,0,0,0,0,0,0,0,0,0],"id":30,"left_children":[1,3,-1,5,7,9,11,13,15,-1,-1,-1,-1,-1,-1,-1,-1],"loss_changes":[2.410185E0,2.2018294E0,0E0,2.1166499E0,3.5311692E0,3.200147E0,1.0982789E0,3.2234297E0,1.7942088E0,0E0,0E0,0E0,0E0,0E0,0E0,0E0,0E0],"parents":[2147483647,0,0,1,1,3,3,4,4,5,5,6,6,7,7,8,8],"right_children":[2,4,-1,6,8,10,12,14,16,-1,-1,-1,-1,-1,-1,-1,-1],"split_conditions":[4.83E1,8.5E1,9.14835E-2,1.07E2,7.09E-1,3.1E1,4.5E1,1.41E2,9.17E-1,-5.967735E-2,2.8894722E-2,9.571276E-3,7.090699E-2,-1.1418748E-1,1.0344867E-2,9.954209E-2,-3.1276092E-2],"split_indices":[5,2,0,1,6,3,3,1,6,0,0,0,0,0,0,0,0],"split_type":[0,0,0,0,0,0,0,0,0,0,0,0,0,0,0,0,0],"sum_hessian":[7.378224E1,7.206843E1,1.713817E0,6.1294823E1,1.0773603E1,1.5694193E1,4.5600628E1,8.194976E0,2.5786269E0,9.96337E0,5.730822E0,4.3417686E1,2.1829414E0,5.33142E0,2.8635564E0,1.3458114E0,1.2328156E0],"tree_param":{"num_deleted":"0","num_feature":"8","num_nodes":"17","size_leaf_vector":"1"}},{"base_weights":[2.0236472E-2,-4.8068887E-1,1.1113574E-1,-6.7039794E-1,9.338427E-2,4.1378956E-2,6.666821E-1,-6.6163316E-3,-7.4083734E-1,-2.621651E-2,3.8371168E-2,8.407775E-2,-7.854159E-2,3.2980595E-2,1.0597887E-1,-8.1723355E-2,-1.2808767E-2,-2.7439354E-3,5.1418513E-2,4.691608E-2,-3.6178343E-2],"categories":[],"categories_nodes":[],"categories_segments":[],"categories_sizes":[],"default_left":[0,0,0,0,0,0,0,0,0,0,0,0,0,0,0,0,0,0,0,0,0],"id":31,"left_children":[1,3,5,7,9,11,13,-1,15,-1,-1,17,-1,19,-1,-1,-1,-1,-1,-1,-1],"loss_changes":[3.3922887E0,1.309614E0,2.4090962E0,3.2248497E-1,4.847769E-1,2.0758045E0,1.6959257E0,0E0,2.566676E-1,0E0,0E0,2.6538992E0,0E0,8.054856E-1,0E0,0E0,0E0,0E0,0E0,0E0,0E0],"parents":[2147483647,0,0,1,1,2,2,3,3,4,4,5,5,6,6,8,8,11,11,13,13],"right_children":[2,4,6,8,10,12,14,-1,16,-1,-1,18,-1,20,-1,-1,-1,-1,-1,-1,-1],"split_conditions":[1E2,8E1,4.29E1,1.97E-1,3E-1,9.4E1,8E1,-6.6163316E-3,3.78E1,-2.621651E-2,3.8371168E-2,1.55E2,-7.854159E-2,4.45E1,1.0597887E-1,-8.1723355E-2,-1.2808767E-2,-2.7439354E-3,5.1418513E-2,4.691608E-2,-3.6178343E-2],"split_indices":[1,2,5,6,6,2,2,0,5,0,0,1,0,5,0,0,0,0,0,0,0],"split_type":[0,0,0,0,0,0,0,0,0,0,0,0,0,0,0,0,0,0,0,0,0],"sum_hessian":[7.23273E1,1.0450239E1,6.187706E1,7.7284822E0,2.7217577E0,5.5928875E1,5.948186E0,1.0093646E0,6.7191176E0,1.2670577E0,1.4546999E0,5.4036533E1,1.8923411E0,2.6921859E0,3.256E0,5.6775393E0,1.041578E0,4.3654194E1,1.038234E1,1.1894678E0,1.5027181E0],"tree_param":{"num_deleted":"0","num_feature":"8","num_nodes":"21","size_leaf_vector":"1"}},{"base_weights":[4.017376E-2,-3.435104E-1,1.3701776E-1,-4.6483895E-1,4.5297015E-2,-9.875378E-2,3.0841818E-1,3.359026E-2,-5.551578E-1,-2.1312554E-1,9.0258114E-2,7.1541834E-1,8.033999E-2,-6.7497954E-2,-1.9928807E-2,7.213232E-3,-4.668087E-2,1.3335636E-1,5.2130945E-2,3.2873385E-2,-4.0062703E-2],"categories":[],"categories_nodes":[],"categories_segments":[],"categories_sizes":[],"default_left":[0,0,0,0,0,0,0,0,0,0,0,0,0,0,0,0,0,0,0,0,0],"id":32,"left_children":[1,3,5,7,-1,9,11,-1,13,15,-1,17,19,-1,-1,-1,-1,-1,-1,-1,-1],"loss_changes":[2.8130302E0,1.6878587E0,2.4612637E0,1.1816258E0,0E0,3.1789856E0,3.1982841E0,0E0,4.088235E-1,1.7859303E0,0E0,8.0097723E-1,2.9516115E0,0E0,0E0,0E0,0E0,0E0,0E0,0E0,0E0],"parents":[2147483647,0,0,1,1,2,2,3,3,5,5,6,6,8,8,9,9,11,11,12,12],"right_children":[2,4,6,8,-1,10,12,-1,14,16,-1,18,20,-1,-1,-1,-1,-1,-1,-1,-1],"split_conditions":[2.82E1,1.62E2,3.1E1,1.99E1,4.5297015E-2,1.66E2,3.26E1,3.359026E-2,4.2E1,3.44E1,9.0258114E-2,1.87E-1,4.4E1,-6.7497954E-2,-1.9928807E-2,7.213232E-3,-4.668087E-2,1.3335636E-1,5.2130945E-2,3.2873385E-2,-4.0062703E-2],"split_indices":[5,1,7,5,0,1,5,0,4,5,0,6,7,0,0,0,0,0,0,0,0],"split_type":[0,0,0,0,0,0,0,0,0,0,0,0,0,0,0,0,0,0,0,0,0],"sum_hessian":[7.343887E1,1.4287295E1,5.9151577E1,1.2759946E1,1.5273492E0,2.5078474E1,3.40731E1,1.0177531E0,1.1742192E1,2.3214132E1,1.8643429E0,1.1469438E1,2.2603664E1,8.113622E0,3.6285708E0,1.1263914E1,1.1950218E1,1.3380849E0,1.0131352E1,1.5114398E1,7.489267E0],"tree_param":{"num_deleted":"0","num_feature":"8","num_nodes":"21","size_leaf_vector":"1"}},{"base_weights":[7.74603E-2,6.566196E-1,4.16773E-2,7.725306E-2,1.774343E-2,-5.538342E-1,1.2968026E-1,-8.555818E-1,3.3061247E-2,6.719229E-1,3.1753127E-2,-1.0138905E-1,-2.014528E-2,1.7124681E-3,9.553025E-2,-3.9727908E-2,1.9310197E-2],"categories":[],"categories_nodes":[],"categories_segments":[],"categories_sizes":[],"default_left":[0,0,0,0,0,0,0,0,0,0,0,0,0,0,0,0,0],"id":33,"left_children":[1,3,5,-1,-1,7,9,11,-1,13,15,-1,-1,-1,-1,-1,-1],"loss_changes":[1.4496512E0,8.9508414E-2,3.6455057E0,0E0,0E0,2.6766162E0,3.1764617E0,5.1715565E-1,0E0,1.6838155E0,3.6804602E0,0E0,0E0,0E0,0E0,0E0,0E0],"parents":[2147483647,0,0,1,1,2,2,5,5,6,6,7,7,9,9,10,10],"right_children":[2,4,6,-1,-1,8,10,12,-1,14,16,-1,-1,-1,-1,-1,-1],"split_conditions":[2.4E1,3.24E1,6.1E1,7.725306E-2,1.774343E-2,1.66E2,6.8E1,6E1,3.3061247E-2,3.2E1,2.54E-1,-1.0138905E-1,-2.014528E-2,1.7124681E-3,9.553025E-2,-3.9727908E-2,1.9310197E-2],"split_indices":[2,5,2,0,0,4,2,2,0,5,6,0,0,0,0,0,0],"split_type":[0,0,0,0,0,0,0,0,0,0,0,0,0,0,0,0,0],"sum_hessian":[7.0270676E1,3.0794086E0,6.719127E1,1.986674E0,1.0927347E0,7.9693985E0,5.922187E1,5.9664536E0,2.0029454E0,8.162572E0,5.1059296E1,4.3610344E0,1.6054188E0,2.7858372E0,5.376735E0,1.3554684E1,3.7504612E1],"tree_param":{"num_deleted":"0","num_feature":"8","num_nodes":"17","size_leaf_vector":"1"}},{"base_weights":[-2.3463808E-3,7.72132E-1,-5.005646E-2,1.252065E-2,1.0033319E-1,-5.821096E-1,2.8028246E-2,-7.350778E-1,2.9270504E-2,5.3451383E-1,-5.9132937E-2,-8.759963E-2,-1.782008E-2,-5.6183677E-2,7.400567E-2,-2.876383E-2,1.0469142E-2],"categories":[],"categories_nodes":[],"categories_segments":[],"categories_sizes":[],"default_left":[0,0,0,0,0,0,0,0,0,0,0,0,0,0,0,0,0],"id":34,"left_children":[1,3,5,-1,-1,7,9,11,-1,13,15,-1,-1,-1,-1,-1,-1],"loss_changes":[2.746396E0,5.195005E-1,2.923122E0,0E0,0E0,1.4195662E0,2.7671962E0,4.674158E-1,0E0,2.488491E0,2.0429502E0,0E0,0E0,0E0,0E0,0E0,0E0],"parents":[2147483647,0,0,1,1,2,2,5,5,6,6,7,7,9,9,10,10],"right_children":[2,4,6,-1,-1,8,10,12,-1,14,16,-1,-1,-1,-1,-1,-1],"split_conditions":[4.4E1,1.17E2,6.2E1,1.252065E-2,1.0033319E-1,3.63E1,6.8E1,3.2E1,2.9270504E-2,9.1E1,3.19E-1,-8.759963E-2,-1.782008E-2,-5.6183677E-2,7.400567E-2,-2.876383E-2,1.0469142E-2],"split_indices":[2,1,2,0,0,5,2,3,0,1,6,0,0,0,0,0,0],"split_type":[0,0,0,0,0,0,0,0,0,0,0,0,0,0,0,0,0],"sum_hessian":[7.228051E1,3.3132153E0,6.89673E1,1.2782022E0,2.035013E0,8.000268E0,6.096703E1,6.9455223E0,1.0547462E0,8.197814E0,5.2769215E1,5.085562E0,1.8599602E0,1.0205967E0,7.177217E0,2.1719152E1,3.1050064E1],"tree_param":{"num_deleted":"0","num_feature":"8","num_nodes":"17","size_leaf_vector":"1"}},{"base_weights":[-6.681387E-2,-2.01983E-1,2.639771E-1,-4.550883E-1,2.411735E-2,5.8736823E-2,7.685783E-2,-2.6462063E-1,-9.976879E-1,2.9031438E-1,-4.161361E-1,1.8839245E-1,-6.863691E-2,-4.3291204E-2,6.446686E-2,-3.1622555E-2,-1.11363046E-1,6.536736E-2,2.6471613E-3,5.925217E-3,-7.220398E-2,4.4689085E-2,-2.7286375E-2],"categories":[],"categories_nodes":[],"categories_segments":[],"categories_sizes":[],"default_left":[0,0,0,0,0,0,0,0,0,0,0,0,0,0,0,0,0,0,0,0,0,0,0],"id":35,"left_children":[1,3,5,7,9,11,-1,13,15,17,19,21,-1,-1,-1,-1,-1,-1,-1,-1,-1,-1,-1],"loss_changes":[3.146326E0,2.853725E0,2.077959E0,2.1634269E0,3.306938E0,1.641758E0,0E0,3.1477473E0,1.0150051E-1,1.663444E0,1.5922883E0,1.8055077E0,0E0,0E0,0E0,0E0,0E0,0E0,0E0,0E0,0E0,0E0,0E0],"parents":[2147483647,0,0,1,1,2,2,3,3,4,4,5,5,7,7,8,8,9,9,10,10,11,11],"right_children":[2,4,6,8,10,12,-1,14,16,18,20,22,-1,-1,-1,-1,-1,-1,-1,-1,-1,-1,-1],"split_conditions":[7E0,1.23E2,1.43E2,1.16E2,1.4E2,4E1,7.685783E-2,1.12E2,3.25E1,1.37E2,3.35E1,1.21E2,-6.863691E-2,-4.3291204E-2,6.446686E-2,-3.1622555E-2,-1.11363046E-1,6.536736E-2,2.6471613E-3,5.925217E-3,-7.220398E-2,4.4689085E-2,-2.7286375E-2],"split_indices":[0,1,1,1,4,3,0,1,5,1,5,1,0,0,0,0,0,0,0,0,0,0,0],"split_type":[0,0,0,0,0,0,0,0,0,0,0,0,0,0,0,0,0,0,0,0,0,0,0],"sum_hessian":[6.8175095E1,4.86748E1,1.9500298E1,2.2488052E1,2.6186747E1,1.4655682E1,4.8446145E0,1.7746296E1,4.741757E0,1.6531584E1,9.655164E0,1.311986E1,1.5358223E0,1.5416843E1,2.3294516E0,1.2314191E0,3.5103378E0,6.3327403E0,1.0198842E1,4.0960383E0,5.5591254E0,8.427847E0,4.692013E0],"tree_param":{"num_deleted":"0","num_feature":"8","num_nodes":"23","size_leaf_vector":"1"}},{"base_weights":[3.260575E-3,-2.8163241E-2,8.557426E-2,2.9357318E-3,-8.9223504E-2,-3.391175E-2,6.8460983E-1,5.942413E-3,-3.8288604E-2,-1.6394032E-2,1.117812E-1],"categories":[],"categories_nodes":[],"categories_segments":[],"categories_sizes":[],"default_left":[0,0,0,0,0,0,0,0,0,0,0],"id":36,"left_children":[1,3,-1,5,-1,7,9,-1,-1,-1,-1],"loss_changes":[1.9783288E0,1.9192636E0,0E0,1.7775671E0,0E0,2.2120826E0,1.5172464E0,0E0,0E0,0E0,0E0],"parents":[2147483647,0,0,1,1,3,3,5,5,6,6],"right_children":[2,4,-1,6,-1,8,10,-1,-1,-1,-1],"split_conditions":[4.83E1,4.61E1,8.557426E-2,4.28E1,-8.9223504E-2,8.4E1,7.8E1,5.942413E-3,-3.8288604E-2,-1.6394032E-2,1.117812E-1],"split_indices":[5,5,0,5,0,2,2,0,0,0,0],"split_type":[0,0,0,0,0,0,0,0,0,0,0],"sum_hessian":[7.195098E1,7.032563E1,1.6253489E0,6.884444E1,1.4811909E0,6.6215454E1,2.6289845E0,5.289736E1,1.3318092E1,1.0986083E0,1.5303761E0],"tree_param":{"num_deleted":"0","num_feature":"8","num_nodes":"11","size_leaf_vector":"1"}},{"base_weights":[4.172796E-2,-1.6471584E-1,1.955692E-1,-4.122546E-1,1.0360986E-1,6.068922E-1,1.0210908E-1,3.6205504E-2,-4.9734896E-1,-1.9484214E-1,7.0217353E-1,-1.0151385E-2,8.008184E-1,-5.5301286E-2,1.5475911E-1,-6.156842E-2,5.011182E-2,-3.7212234E-2,6.735476E-2,1.0198221E-1,-2.8306613E-2,1.05568506E-1,5.4743728E-3,8.133579E-3,7.844042E-2],"categories":[],"categories_nodes":[],"categories_segments":[],"categories_sizes":[],"default_left":[0,0,0,0,0,0,0,0,0,0,0,0,0,0,0,0,0,0,0,0,0,0,0,0,0],"id":37,"left_children":[1,3,5,7,9,11,13,-1,15,17,19,-1,21,-1,23,-1,-1,-1,-1,-1,-1,-1,-1,-1,-1],"loss_changes":[2.2564251E0,2.0650165E0,1.4982527E0,1.2367783E0,2.8895316E0,1.0858319E0,1.267765E0,0E0,2.065592E0,1.9540827E0,1.9611573E0,0E0,1.055188E0,0E0,1.4389563E0,0E0,0E0,0E0,0E0,0E0,0E0,0E0,0E0,0E0,0E0],"parents":[2147483647,0,0,1,1,2,2,3,3,4,4,5,5,6,6,8,8,9,9,10,10,12,12,14,14],"right_children":[2,4,6,8,10,12,14,-1,16,18,20,-1,22,-1,24,-1,-1,-1,-1,-1,-1,-1,-1,-1,-1],"split_conditions":[3.1E1,2.9E1,3.4E1,2.4E1,3E0,6.4E1,3.5E1,3.6205504E-2,6E0,1.66E2,3.9E1,-1.0151385E-2,8.5E1,-5.5301286E-2,2.7E2,-6.156842E-2,5.011182E-2,-3.7212234E-2,6.735476E-2,1.0198221E-1,-2.8306613E-2,1.05568506E-1,5.4743728E-3,8.133579E-3,7.844042E-2],"split_indices":[7,3,7,2,0,2,7,0,0,1,3,0,2,0,4,0,0,0,0,0,0,0,0,0,0],"split_type":[0,0,0,0,0,0,0,0,0,0,0,0,0,0,0,0,0,0,0,0,0,0,0,0,0],"sum_hessian":[6.903281E1,2.9446737E1,3.9586075E1,1.5037646E1,1.440909E1,6.3121905E0,3.3273884E1,1.1666899E0,1.3870956E1,1.0065019E1,4.344072E0,1.4590094E0,4.853181E0,1.7682363E0,3.1505648E1,1.2743953E1,1.1270038E0,8.833214E0,1.2318044E0,3.2584293E0,1.0856423E0,3.3081112E0,1.5450698E0,2.9226683E1,2.278965E0],"tree_param":{"num_deleted":"0","num_feature":"8","num_nodes":"25","size_leaf_vector":"1"}},{"base_weights":[-2.7607894E-2,-2.1312416E-1,1.6125397E-1,-3.0587885E-1,2.7438074E-1,8.034668E-2,8.947988E-2,-1.5107395E-1,-6.9161654E-1,-7.780665E-2,6.26915E-1,2.3169428E-1,-2.197339E-1,-3.0732019E-2,2.6652098E-2,-9.389146E-2,-2.6125986E-2,4.6319623E-2,-7.246976E-2,1.00831166E-1,-1.0413538E-2,5.8568526E-2,-2.025629E-3,-4.97812E-2,4.5616295E-2],"categories":[],"categories_nodes":[],"categories_segments":[],"categories_sizes":[],"default_left":[0,0,0,0,0,0,0,0,0,0,0,0,0,0,0,0,0,0,0,0,0,0,0,0,0],"id":38,"left_children":[1,3,5,7,9,11,-1,13,15,17,19,21,23,-1,-1,-1,-1,-1,-1,-1,-1,-1,-1,-1,-1],"loss_changes":[2.5042593E0,1.7114574E0,2.0350745E0,1.7294593E0,8.285636E-1,1.5529809E0,0E0,1.5953914E0,6.61036E-1,1.7465563E0,1.0109304E0,2.016077E0,2.4076116E0,0E0,0E0,0E0,0E0,0E0,0E0,0E0,0E0,0E0,0E0,0E0,0E0],"parents":[2147483647,0,0,1,1,2,2,3,3,4,4,5,5,7,7,8,8,9,9,10,10,11,11,12,12],"right_children":[2,4,6,8,10,12,-1,14,16,18,20,22,24,-1,-1,-1,-1,-1,-1,-1,-1,-1,-1,-1,-1],"split_conditions":[1.24E2,1.5E2,4.4E1,4.9E1,5.29E-1,1.4E2,8.947988E-2,3E1,5.28E-1,4.15E-1,8.01E-1,1.37E2,7E0,-3.0732019E-2,2.6652098E-2,-9.389146E-2,-2.6125986E-2,4.6319623E-2,-7.246976E-2,1.00831166E-1,-1.0413538E-2,5.8568526E-2,-2.025629E-3,-4.97812E-2,4.5616295E-2],"split_indices":[1,4,3,4,6,4,0,3,6,6,6,1,0,0,0,0,0,0,0,0,0,0,0,0,0],"split_type":[0,0,0,0,0,0,0,0,0,0,0,0,0,0,0,0,0,0,0,0,0,0,0,0,0],"sum_hessian":[6.949394E1,3.4992676E1,3.4501263E1,2.9712093E1,5.2805834E0,3.2073235E1,2.4280276E0,2.2196003E1,7.516089E0,3.03143E0,2.2491536E0,2.1471724E1,1.0601511E1,1.6344616E1,5.8513875E0,4.0227585E0,3.4933307E0,1.8054639E0,1.2259661E0,1.2288077E0,1.020346E0,8.377175E0,1.3094549E1,7.697909E0,2.9036016E0],"tree_param":{"num_deleted":"0","num_feature":"8","num_nodes":"25","size_leaf_vector":"1"}},{"base_weights":[5.117566E-2,-3.4622577E-1,1.8074788E-1,-5.705374E-1,4.175259E-1,3.5356984E-1,-6.7913965E-3,-6.4154136E-1,1.5517208E-2,8.5176624E-2,-3.057812E-2,1.0310066E-1,6.943405E-1,-8.261124E-2,7.951677E-2,-7.3214106E-2,6.1923265E-3,-2.3441479E-2,4.6158966E-2,7.898926E-2,-1.1759145E-2,-1.8205011E-2,3.5082597E-2],"categories":[],"categories_nodes":[],"categories_segments":[],"categories_sizes":[],"default_left":[0,0,0,0,0,0,0,0,0,0,0,0,0,0,0,0,0,0,0,0,0,0,0],"id":39,"left_children":[1,3,5,7,9,11,13,15,-1,-1,-1,17,19,21,-1,-1,-1,-1,-1,-1,-1,-1,-1],"loss_changes":[3.6030622E0,3.1933055E0,1.7042505E0,8.083601E-1,1.6717668E0,2.262409E0,1.6565269E0,8.5632277E-1,0E0,0E0,0E0,2.1573021E0,9.7809505E-1,1.1331561E0,0E0,0E0,0E0,0E0,0E0,0E0,0E0,0E0,0E0],"parents":[2147483647,0,0,1,1,2,2,3,3,4,4,5,5,6,6,7,7,11,11,12,12,13,13],"right_children":[2,4,6,8,10,12,14,16,-1,-1,-1,18,20,22,-1,-1,-1,-1,-1,-1,-1,-1,-1],"split_conditions":[1.07E2,3.79E1,7.5E1,1.55E2,1.4E1,7E1,4.83E1,7.85E-1,1.5517208E-2,8.5176624E-2,-3.057812E-2,3.2E1,3.72E1,7.31E-1,7.951677E-2,-7.3214106E-2,6.1923265E-3,-2.3441479E-2,4.6158966E-2,7.898926E-2,-1.1759145E-2,-1.8205011E-2,3.5082597E-2],"split_indices":[1,5,2,4,4,2,5,6,0,0,0,5,5,6,0,0,0,0,0,0,0,0,0],"split_type":[0,0,0,0,0,0,0,0,0,0,0,0,0,0,0,0,0,0,0,0,0,0,0],"sum_hessian":[6.775766E1,1.6249119E1,5.1508545E1,1.2755768E1,3.4933512E0,2.6345356E1,2.5163189E1,1.1724604E1,1.0311638E0,2.0718863E0,1.421465E0,1.593532E1,1.0410035E1,2.380918E1,1.3540097E0,1.0350758E1,1.3738459E0,8.386025E0,7.549295E0,9.338214E0,1.0718213E0,1.9837954E1,3.971225E0],"tree_param":{"num_deleted":"0","num_feature":"8","num_nodes":"23","size_leaf_vector":"1"}},{"base_weights":[-7.6005245E-3,5.62344E-2,-6.3608456E-1,-1.17407046E-1,5.051051E-1,-9.3196325E-2,5.1811626E-3,2.133276E-1,-2.827176E-1,1.0491232E-1,8.7433076E-1,-2.1639692E-3,6.6553876E-2,-3.6933374E-2,3.1048436E-2,3.359175E-2,-8.8804305E-2,9.8167285E-2,3.3972505E-2],"categories":[],"categories_nodes":[],"categories_segments":[],"categories_sizes":[],"default_left":[0,0,0,0,0,0,0,0,0,0,0,0,0,0,0,0,0,0,0],"id":40,"left_children":[1,3,5,7,9,-1,-1,11,13,15,17,-1,-1,-1,-1,-1,-1,-1,-1],"loss_changes":[2.6536484E0,4.747911E0,1.2893941E0,2.4761734E0,2.4154787E0,0E0,0E0,1.6396205E0,1.6505098E0,2.4266753E0,1.6513062E-1,0E0,0E0,0E0,0E0,0E0,0E0,0E0,0E0],"parents":[2147483647,0,0,1,1,2,2,3,3,4,4,7,7,8,8,9,9,10,10],"right_children":[2,4,6,8,10,-1,-1,12,14,16,18,-1,-1,-1,-1,-1,-1,-1,-1],"split_conditions":[5.7E1,4.1E1,8.2E1,6.8E1,1.23E2,-9.3196325E-2,5.1811626E-3,3E1,4.2E1,1.16E2,5.1E1,-2.1639692E-3,6.6553876E-2,-3.6933374E-2,3.1048436E-2,3.359175E-2,-8.8804305E-2,9.8167285E-2,3.3972505E-2],"split_indices":[7,7,2,2,1,0,0,7,3,1,7,0,0,0,0,0,0,0,0],"split_type":[0,0,0,0,0,0,0,0,0,0,0,0,0,0,0,0,0,0,0],"sum_hessian":[6.425246E1,5.9154663E1,5.0977964E0,4.318672E1,1.5967941E1,3.3164985E0,1.7812979E0,1.4295479E1,2.8891241E1,8.278865E0,7.689076E0,1.0033997E1,4.2614822E0,2.5539494E1,3.3517485E0,7.2531595E0,1.0257055E0,5.7069387E0,1.9821372E0],"tree_param":{"num_deleted":"0","num_feature":"8","num_nodes":"19","size_leaf_vector":"1"}},{"base_weights":[-3.4998877E-3,-2.1022154E-1,1.7460926E-1,3.78156E-1,-2.9321253E-1,7.528185E-1,9.81467E-2,-5.780074E-2,8.532881E-1,-1.2041337E-1,-8.401249E-1,-3.6190685E-3,1.0467764E-1,6.7015314E-1,2.3753298E-2,1.0526078E-1,2.7830217E-2,-3.606565E-2,3.7215378E-2,-1.0201186E-1,-5.747773E-3,8.140661E-2,2.616035E-2,-3.1032598E-2,1.444451E-2],"categories":[],"categories_nodes":[],"categories_segments":[],"categories_sizes":[],"default_left":[0,0,0,0,0,0,0,0,0,0,0,0,0,0,0,0,0,0,0,0,0,0,0,0,0],"id":41,"left_children":[1,3,5,7,9,11,13,-1,15,17,19,-1,-1,21,23,-1,-1,-1,-1,-1,-1,-1,-1,-1,-1],"loss_changes":[2.536057E0,1.6671528E0,1.562413E0,2.4814622E0,2.59176E0,1.0056975E0,1.42401E0,0E0,8.8409185E-2,2.834714E0,8.8156176E-1,0E0,0E0,1.3849497E-2,1.2939757E0,0E0,0E0,0E0,0E0,0E0,0E0,0E0,0E0,0E0,0E0],"parents":[2147483647,0,0,1,1,2,2,3,3,4,4,5,5,6,6,8,8,9,9,10,10,13,13,14,14],"right_children":[2,4,6,8,10,12,14,-1,16,18,20,-1,-1,22,24,-1,-1,-1,-1,-1,-1,-1,-1,-1,-1],"split_conditions":[1.24E2,1E0,1.26E2,1.05E2,1.16E2,2.07E-1,5.4E1,-5.780074E-2,7E0,3.1E1,7.22E-1,-3.6190685E-3,1.0467764E-1,4.4E1,2.57E-1,1.0526078E-1,2.7830217E-2,-3.606565E-2,3.7215378E-2,-1.0201186E-1,-5.747773E-3,8.140661E-2,2.616035E-2,-3.1032598E-2,1.444451E-2],"split_indices":[1,0,1,1,1,6,2,0,3,3,6,0,0,2,6,0,0,0,0,0,0,0,0,0,0],"split_type":[0,0,0,0,0,0,0,0,0,0,0,0,0,0,0,0,0,0,0,0,0,0,0,0,0],"sum_hessian":[6.688205E1,3.087121E1,3.601084E1,3.3764875E0,2.7494722E1,3.172773E0,3.283807E1,1.0489813E0,2.327506E0,2.182059E1,5.674134E0,1.099229E0,2.073544E0,2.8576367E0,2.9980433E1,1.1115267E0,1.2159795E0,1.4846975E1,6.9736133E0,4.3665023E0,1.3076319E0,1.3792249E0,1.4784119E0,7.539526E0,2.2440907E1],"tree_param":{"num_deleted":"0","num_feature":"8","num_nodes":"25","size_leaf_vector":"1"}},{"base_weights":[-4.9440168E-2,-2.2929347E-1,1.5656914E-1,-3.2327792E-1,2.7226418E-1,-1.20347865E-1,3.4119612E-1,-1.0870127E-1,-7.3735255E-1,-3.5975158E-1,7.0977515E-1,-4.7409979E-1,4.8529008E-1,5.4848313E-1,-3.0841095E-2,1.3802722E-2,-5.885322E-2,3.0522207E-2,-8.8800386E-2,1.5061723E-2,-6.711081E-2,1.1244036E-1,7.2431467E-3,1.0872773E-2,-8.537307E-2,2.9881857E-3,1.0331597E-1,4.691781E-3,8.456244E-2,-8.3135895E-2,3.0639106E-2],"categories":[],"categories_nodes":[],"categories_segments":[],"categories_sizes":[],"default_left":[0,0,0,0,0,0,0,0,0,0,0,0,0,0,0,0,0,0,0,0,0,0,0,0,0,0,0,0,0,0,0],"id":42,"left_children":[1,3,5,7,9,11,13,15,17,19,21,23,25,27,29,-1,-1,-1,-1,-1,-1,-1,-1,-1,-1,-1,-1,-1,-1,-1,-1],"loss_changes":[2.5341835E0,1.8040884E0,1.6782622E0,2.684599E0,1.9940584E0,3.1328788E0,1.5186961E0,2.6465406E0,1.9120784E0,6.1528003E-1,9.893768E-1,2.097198E0,1.3389106E0,1.8320758E0,2.391351E0,0E0,0E0,0E0,0E0,0E0,0E0,0E0,0E0,0E0,0E0,0E0,0E0,0E0,0E0,0E0,0E0],"parents":[2147483647,0,0,1,1,2,2,3,3,4,4,5,5,6,6,7,7,8,8,9,9,10,10,11,11,12,12,13,13,14,14],"right_children":[2,4,6,8,10,12,14,16,18,20,22,24,26,28,30,-1,-1,-1,-1,-1,-1,-1,-1,-1,-1,-1,-1,-1,-1,-1,-1],"split_conditions":[1.28E2,1.56E2,3.15E-1,4.9E1,2.9E1,4.2E1,6.54E-1,4.1E1,8.2E1,1.68E2,2E0,2.43E-1,2.17E-1,6.8E1,7.04E-1,1.3802722E-2,-5.885322E-2,3.0522207E-2,-8.8800386E-2,1.5061723E-2,-6.711081E-2,1.1244036E-1,7.2431467E-3,1.0872773E-2,-8.537307E-2,2.9881857E-3,1.0331597E-1,4.691781E-3,8.456244E-2,-8.3135895E-2,3.0639106E-2],"split_indices":[1,4,6,4,7,7,6,7,1,4,0,6,6,4,6,0,0,0,0,0,0,0,0,0,0,0,0,0,0,0,0],"split_type":[0,0,0,0,0,0,0,0,0,0,0,0,0,0,0,0,0,0,0,0,0,0,0,0,0,0,0,0,0,0,0],"sum_hessian":[6.642741E1,3.5404778E1,3.1022627E1,3.011679E1,5.287988E0,1.2548951E1,1.8473677E1,2.0668652E1,9.448139E0,2.2358603E0,3.052128E0,8.058933E0,4.4900174E0,1.155907E1,6.914606E0,1.4120335E1,6.5483165E0,1.0633391E0,8.3848E0,1.0427924E0,1.1930679E0,1.3861533E0,1.6659747E0,3.4602256E0,4.5987077E0,3.0277712E0,1.4622462E0,4.731069E0,6.828001E0,1.6152064E0,5.2994E0],"tree_param":{"num_deleted":"0","num_feature":"8","num_nodes":"31","size_leaf_vector":"1"}},{"base_weights":[2.3526898E-2,7.4121706E-2,-4.9102753E-1,-2.127093E-1,1.6211143E-1,-7.8635484E-1,6.5302006E-3,-7.0913327E-1,3.700977E-1,3.0293715E-1,-5.2190594E-2,-1.9171754E-2,-9.2515275E-2,-9.0637095E-2,-2.0013193E-2,-7.133328E-2,7.415654E-2,7.896381E-2,1.4930253E-2,-1.4895714E-2,5.2212942E-2],"categories":[],"categories_nodes":[],"categories_segments":[],"categories_sizes":[],"default_left":[0,0,0,0,0,0,0,0,0,0,0,0,0,0,0,0,0,0,0,0,0],"id":43,"left_children":[1,3,5,7,9,11,-1,13,15,17,19,-1,-1,-1,-1,-1,-1,-1,-1,-1,-1],"loss_changes":[1.7804185E0,1.5957737E0,1.0582554E0,4.5891514E0,1.4616225E0,1.5937209E-1,0E0,6.6380596E-1,3.5618985E0,2.0547996E0,1.1809787E0,0E0,0E0,0E0,0E0,0E0,0E0,0E0,0E0,0E0,0E0],"parents":[2147483647,0,0,1,1,2,2,3,3,4,4,5,5,7,7,8,8,9,9,10,10],"right_children":[2,4,6,8,10,12,-1,14,16,18,20,-1,-1,-1,-1,-1,-1,-1,-1,-1,-1],"split_conditions":[5.7E1,1.07E2,1.43E2,3.1E1,7.8E1,7.5E1,6.5302006E-3,4E1,2.39E-1,1.16E2,9.5E1,-1.9171754E-2,-9.2515275E-2,-9.0637095E-2,-2.0013193E-2,-7.133328E-2,7.415654E-2,7.896381E-2,1.4930253E-2,-1.4895714E-2,5.2212942E-2],"split_indices":[7,1,1,3,2,2,0,7,6,1,2,0,0,0,0,0,0,0,0,0,0],"split_type":[0,0,0,0,0,0,0,0,0,0,0,0,0,0,0,0,0,0,0,0,0],"sum_hessian":[6.5990746E1,6.0862267E1,5.12848E0,1.3954763E1,4.69075E1,3.0799959E0,2.048484E0,7.4188085E0,6.535955E0,2.805677E1,1.8850733E1,1.0335097E0,2.0464861E0,4.7842355E0,2.634573E0,1.4337983E0,5.1021566E0,5.738379E0,2.2318392E1,1.6766415E1,2.0843172E0],"tree_param":{"num_deleted":"0","num_feature":"8","num_nodes":"21","size_leaf_vector":"1"}},{"base_weights":[2.0962857E-2,-3.2986347E-2,5.301639E-1,-5.09814E-1,3.0320501E-2,-4.342369E-2,8.1942165E-1,-8.018268E-1,5.393171E-2,6.606946E-2,-8.578411E-2,1.1993387E-2,1.0518264E-1,-9.589051E-2,-2.5949065E-2,9.976028E-4,5.336056E-2],"categories":[],"categories_nodes":[],"categories_segments":[],"categories_sizes":[],"default_left":[0,0,0,0,0,0,0,0,0,0,0,0,0,0,0,0,0],"id":44,"left_children":[1,3,5,7,9,-1,11,13,-1,15,-1,-1,-1,-1,-1,-1,-1],"loss_changes":[1.8550807E0,1.8696713E0,2.1597962E0,2.6552424E0,1.8083656E0,0E0,7.3886466E-1,2.6894403E-1,0E0,1.4099104E0,0E0,0E0,0E0,0E0,0E0,0E0,0E0],"parents":[2147483647,0,0,1,1,2,2,3,3,4,4,6,6,7,7,9,9],"right_children":[2,4,6,8,10,-1,12,14,-1,16,-1,-1,-1,-1,-1,-1,-1],"split_conditions":[4.29E1,2.3E1,1.04E2,1.49E2,1.394E0,-4.342369E-2,1E0,5.39E-1,5.393171E-2,1.66E2,-8.578411E-2,1.1993387E-2,1.0518264E-1,-9.589051E-2,-2.5949065E-2,9.976028E-4,5.336056E-2],"split_indices":[5,7,1,1,6,0,0,6,0,1,0,0,0,0,0,0,0],"split_type":[0,0,0,0,0,0,0,0,0,0,0,0,0,0,0,0,0],"sum_hessian":[6.589211E1,6.0425346E1,5.4667697E0,6.2555366E0,5.416981E1,1.1457081E0,4.3210616E0,5.077891E0,1.1776456E0,5.2963608E1,1.2062013E0,1.4557192E0,2.8653426E0,3.3418736E0,1.7360172E0,4.8201847E1,4.76176E0],"tree_param":{"num_deleted":"0","num_feature":"8","num_nodes":"17","size_leaf_vector":"1"}},{"base_weights":[2.2543816E-2,-3.0650938E-1,1.6831496E-1,-5.199084E-1,3.5833918E-2,4.7362715E-1,-7.7735144E-3,-1.0900209E-2,-6.449281E-1,7.392144E-1,-3.9781368E-1,1.087756E0,2.1924368E-1,-6.227393E-1,1.9560549E-1,-3.0526355E-2,3.3367407E-2,-7.904853E-2,1.0832156E-3,1.17281295E-1,7.318124E-3,-7.397846E-2,1.1765694E-2,1.4172883E-1,2.7088537E-3,3.931122E-2,-4.3988466E-2,-9.90004E-2,-1.3537789E-2,-6.638249E-2,3.391477E-2],"categories":[],"categories_nodes":[],"categories_segments":[],"categories_sizes":[],"default_left":[0,0,0,0,0,0,0,0,0,0,0,0,0,0,0,0,0,0,0,0,0,0,0,0,0,0,0,0,0,0,0],"id":45,"left_children":[1,3,5,7,9,11,13,15,17,19,21,23,25,27,29,-1,-1,-1,-1,-1,-1,-1,-1,-1,-1,-1,-1,-1,-1,-1,-1],"loss_changes":[2.9526641E0,1.4010088E0,2.2917397E0,7.388346E-1,2.7956727E0,2.196045E0,3.6207392E0,4.3945166E-1,9.050782E-1,9.1852903E-1,1.0959842E0,1.4687281E0,1.5792736E0,1.1532104E0,2.9124916E0,0E0,0E0,0E0,0E0,0E0,0E0,0E0,0E0,0E0,0E0,0E0,0E0,0E0,0E0,0E0,0E0],"parents":[2147483647,0,0,1,1,2,2,3,3,4,4,5,5,6,6,7,7,8,8,9,9,10,10,11,11,12,12,13,13,14,14],"right_children":[2,4,6,8,10,12,14,16,18,20,22,24,26,28,30,-1,-1,-1,-1,-1,-1,-1,-1,-1,-1,-1,-1,-1,-1,-1,-1],"split_conditions":[1.12E2,3.1E1,2.79E-1,2.34E-1,9.1E1,1.21E2,1.24E2,7.5E1,8.45E-1,3.3E1,7.5E1,3.43E1,9E0,5.29E-1,3.15E-1,-3.0526355E-2,3.3367407E-2,-7.904853E-2,1.0832156E-3,1.17281295E-1,7.318124E-3,-7.397846E-2,1.1765694E-2,1.4172883E-1,2.7088537E-3,3.931122E-2,-4.3988466E-2,-9.90004E-2,-1.3537789E-2,-6.638249E-2,3.391477E-2],"split_indices":[1,3,6,6,1,1,1,2,6,3,2,5,0,6,6,0,0,0,0,0,0,0,0,0,0,0,0,0,0,0,0],"split_type":[0,0,0,0,0,0,0,0,0,0,0,0,0,0,0,0,0,0,0,0,0,0,0,0,0,0,0,0,0,0,0],"sum_hessian":[5.9481304E1,1.7922247E1,4.1559055E1,1.0720789E1,7.2014585E0,1.4583553E1,2.6975504E1,2.3283348E0,8.392454E0,2.4778001E0,4.7236586E0,3.311919E0,1.1271634E1,6.1916327E0,2.078387E1,1.3171787E0,1.0111561E0,6.6998577E0,1.6925963E0,1.0399095E0,1.4378905E0,2.578127E0,2.1455314E0,2.2703383E0,1.0415804E0,9.238295E0,2.0333402E0,2.9427145E0,3.2489183E0,2.4557803E0,1.832809E1],"tree_param":{"num_deleted":"0","num_feature":"8","num_nodes":"31","size_leaf_vector":"1"}},{"base_weights":[4.0862445E-2,7.209287E-2,-8.6578034E-2,-3.094706E-3,4.156118E-1,-3.8240898E-1,6.9674194E-2,9.562489E-3,6.6733366E-1,-7.40035E-2,-1.3938782E-2,-3.6861582E-4,3.6636826E-2,-2.826855E-2,4.9381256E-2,2.2147326E-2,9.945251E-2],"categories":[],"categories_nodes":[],"categories_segments":[],"categories_sizes":[],"default_left":[0,0,0,0,0,0,0,0,0,0,0,0,0,0,0,0,0],"id":46,"left_children":[1,3,-1,5,7,9,11,13,15,-1,-1,-1,-1,-1,-1,-1,-1],"loss_changes":[1.9051048E0,1.6500288E0,0E0,1.4996222E0,1.166009E0,6.567806E-1,9.9430764E-1,9.0438396E-1,8.105633E-1,0E0,0E0,0E0,0E0,0E0,0E0,0E0,0E0],"parents":[2147483647,0,0,1,1,3,3,4,4,5,5,6,6,7,7,8,8],"right_children":[2,4,-1,6,8,10,12,14,16,-1,-1,-1,-1,-1,-1,-1,-1],"split_conditions":[1.394E0,7.22E-1,-8.6578034E-2,1.02E2,3E0,2.6E1,1.55E2,8.4E1,3.1E1,-7.40035E-2,-1.3938782E-2,-3.6861582E-4,3.6636826E-2,-2.826855E-2,4.9381256E-2,2.2147326E-2,9.945251E-2],"split_indices":[6,6,0,1,0,7,1,2,3,0,0,0,0,0,0,0,0],"split_type":[0,0,0,0,0,0,0,0,0,0,0,0,0,0,0,0,0],"sum_hessian":[6.407853E1,6.28346E1,1.2439312E0,5.236436E1,1.0470239E1,7.743833E0,4.462053E1,4.4040728E0,6.066166E0,2.3056824E0,5.438151E0,3.6566658E1,8.053869E0,3.006108E0,1.3979646E0,3.2772214E0,2.7889442E0],"tree_param":{"num_deleted":"0","num_feature":"8","num_nodes":"17","size_leaf_vector":"1"}},{"base_weights":[-1.0216652E-2,5.1032484E-1,-5.8111154E-2,7.206043E-1,-1.9350046E-2,-6.229532E-1,4.875777E-3,2.1801732E-2,9.128036E-2,-7.812514E-2,-1.876054E-2,6.141302E-1,-1.0268346E-1,-2.6522333E-2,9.1696136E-2,-7.864875E-2,-4.1981987E-3],"categories":[],"categories_nodes":[],"categories_segments":[],"categories_sizes":[],"default_left":[0,0,0,0,0,0,0,0,0,0,0,0,0,0,0,0,0],"id":47,"left_children":[1,3,5,7,-1,9,11,-1,-1,-1,-1,13,15,-1,-1,-1,-1],"loss_changes":[1.7227659E0,1.0014244E0,2.2475402E0,2.5462365E-1,0E0,2.9014707E-1,3.8474996E0,0E0,0E0,0E0,0E0,2.588946E0,2.0399535E0,0E0,0E0,0E0,0E0],"parents":[2147483647,0,0,1,1,2,2,3,3,5,5,6,6,11,11,12,12],"right_children":[2,4,6,8,-1,10,12,-1,-1,-1,-1,14,16,-1,-1,-1,-1],"split_conditions":[5.2E1,3.5E1,6.2E1,2.6E1,-1.9350046E-2,3.3E1,6.8E1,2.1801732E-2,9.128036E-2,-7.812514E-2,-1.876054E-2,2.3E1,7E1,-2.6522333E-2,9.1696136E-2,-7.864875E-2,-4.1981987E-3],"split_indices":[2,7,2,7,0,7,2,0,0,0,0,7,2,0,0,0,0],"split_type":[0,0,0,0,0,0,0,0,0,0,0,0,0,0,0,0,0],"sum_hessian":[6.691166E1,4.8242373E0,6.208742E1,3.6961205E0,1.128117E0,5.3370104E0,5.675041E1,1.6128825E0,2.083238E0,3.331197E0,2.0058136E0,7.8088074E0,4.89416E1,2.0321338E0,5.7766733E0,3.0154796E0,4.592612E1],"tree_param":{"num_deleted":"0","num_feature":"8","num_nodes":"17","size_leaf_vector":"1"}},{"base_weights":[-3.92496E-2,-7.045966E-2,-4.419544E-3,8.594455E-2,-2.9722843E-1,2.8589612E-1,-1.5041265E-1,-6.178959E-1,3.486799E-1,3.608081E-2,-5.6848723E-2,-1.0415777E-1,2.6590114E-3,-8.3337985E-2,-1.692019E-2,8.97501E-2,4.262719E-3],"categories":[],"categories_nodes":[],"categories_segments":[],"categories_sizes":[],"default_left":[0,0,0,0,0,0,0,0,0,0,0,0,0,0,0,0,0],"id":48,"left_children":[1,-1,3,5,7,9,11,13,15,-1,-1,-1,-1,-1,-1,-1,-1],"loss_changes":[1.5371139E0,0E0,1.7232742E0,2.3969035E0,3.3960197E0,1.9541044E0,3.731562E0,8.8602495E-1,9.248257E-1,0E0,0E0,0E0,0E0,0E0,0E0,0E0,0E0],"parents":[2147483647,0,0,2,2,3,3,4,4,5,5,6,6,7,7,8,8],"right_children":[2,-1,4,6,8,10,12,14,16,-1,-1,-1,-1,-1,-1,-1,-1],"split_conditions":[1.41E-1,-7.045966E-2,8.4E1,4.9E1,3.4E1,6.1E1,7.9E1,4.7E1,8.8E1,3.608081E-2,-5.6848723E-2,-1.0415777E-1,2.6590114E-3,-8.3337985E-2,-1.692019E-2,8.97501E-2,4.262719E-3],"split_indices":[6,0,2,4,3,7,4,7,2,0,0,0,0,0,0,0,0],"split_type":[0,0,0,0,0,0,0,0,0,0,0,0,0,0,0,0,0],"sum_hessian":[6.546341E1,2.2998867E0,6.3163525E1,4.8807476E1,1.4356049E1,2.6326447E1,2.248103E1,9.622323E0,4.733726E0,2.4735357E1,1.5910884E0,2.9158616E0,1.9565168E1,5.9212933E0,3.7010295E0,1.0028633E0,3.730863E0],"tree_param":{"num_deleted":"0","num_feature":"8","num_nodes":"17","size_leaf_vector":"1"}},{"base_weights":[2.3689717E-2,-4.8081487E-1,8.234477E-2,-9.102124E-2,1.754087E-1,1.0822813E-1,-6.773935E-2,6.7324534E-2,-3.3755578E-2,1.3753153E-1,-5.4586362E-2,5.8854665E-3,4.767486E-2],"categories":[],"categories_nodes":[],"categories_segments":[],"categories_sizes":[],"default_left":[0,0,0,0,0,0,0,0,0,0,0,0,0],"id":49,"left_children":[1,3,5,-1,7,9,-1,-1,-1,11,-1,-1,-1],"loss_changes":[1.9304867E0,2.0762095E0,1.215782E0,0E0,1.1283804E0,1.1684799E0,0E0,0E0,0E0,1.4504492E0,0E0,0E0,0E0],"parents":[2147483647,0,0,1,1,2,2,4,4,5,5,9,9],"right_children":[2,4,6,-1,8,10,-1,-1,-1,12,-1,-1,-1],"split_conditions":[2.3E1,3.33E1,1.394E0,-9.102124E-2,1.4E1,4.8E1,-6.773935E-2,6.7324534E-2,-3.3755578E-2,7.22E-1,-5.4586362E-2,5.8854665E-3,4.767486E-2],"split_indices":[7,5,6,0,4,3,0,0,0,6,0,0,0],"split_type":[0,0,0,0,0,0,0,0,0,0,0,0,0],"sum_hessian":[6.2899384E1,5.8015647E0,5.7097816E1,3.2729049E0,2.5286596E0,5.6045948E1,1.0518715E0,1.124684E0,1.4039756E0,5.4398617E1,1.6473297E0,4.510956E1,9.289059E0],"tree_param":{"num_deleted":"0","num_feature":"8","num_nodes":"13","size_leaf_vector":"1"}},{"base_weights":[2.9519167E-2,1.6373697E-1,-1.5762232E-1,3.9348492E-1,-6.307013E-2,-8.7834144E-1,-1.0034582E-2,2.0791118E-1,8.529092E-1,-2.2927126E-1,3.3568442E-1,-1.9489048E-2,-1.0193161E-1,7.3550105E-2,-9.267979E-2,-5.2905304E-4,5.335478E-2,-4.1051167E-3,1.16500534E-1,7.4391454E-3,-8.9227885E-2,6.088915E-2,-1.7860096E-2,-2.5510093E-2,4.2375576E-2],"categories":[],"categories_nodes":[],"categories_segments":[],"categories_sizes":[],"default_left":[0,0,0,0,0,0,0,0,0,0,0,0,0,0,0,0,0,0,0,0,0,0,0,0,0],"id":50,"left_children":[1,3,5,7,9,11,13,15,17,19,21,-1,-1,-1,23,-1,-1,-1,-1,-1,-1,-1,-1,-1,-1],"loss_changes":[1.684932E0,2.0547833E0,2.9798827E0,1.4844127E0,1.4332887E0,2.603724E-1,1.5674521E0,1.058485E0,1.5224707E0,3.0942137E0,1.0117102E0,0E0,0E0,0E0,2.0199797E0,0E0,0E0,0E0,0E0,0E0,0E0,0E0,0E0,0E0,0E0],"parents":[2147483647,0,0,1,1,2,2,3,3,4,4,5,5,6,6,7,7,8,8,9,9,10,10,14,14],"right_children":[2,4,6,8,10,12,14,16,18,20,22,-1,-1,-1,24,-1,-1,-1,-1,-1,-1,-1,-1,-1,-1],"split_conditions":[4.9E1,7.5E1,7.9E1,7.2E1,1.45E2,8.7E1,9.2E1,4.84E-1,2.45E-1,1.27E2,2.6E1,-1.9489048E-2,-1.0193161E-1,7.3550105E-2,1.55E2,-5.2905304E-4,5.335478E-2,-4.1051167E-3,1.16500534E-1,7.4391454E-3,-8.9227885E-2,6.088915E-2,-1.7860096E-2,-2.5510093E-2,4.2375576E-2],"split_indices":[4,2,4,2,1,1,4,6,6,1,3,0,0,0,1,0,0,0,0,0,0,0,0,0,0],"split_type":[0,0,0,0,0,0,0,0,0,0,0,0,0,0,0,0,0,0,0,0,0,0,0,0,0],"sum_hessian":[6.505391E1,3.7956547E1,2.7097359E1,1.8490952E1,1.9465597E1,3.764204E0,2.3333155E1,1.4205512E1,4.2854385E0,1.4039117E1,5.4264803E0,1.0510619E0,2.7131422E0,1.5401438E0,2.179301E1,9.179342E0,5.0261703E0,1.3336968E0,2.9517417E0,1.0237883E1,3.8012342E0,3.4237196E0,2.0027606E0,1.6963844E1,4.8291655E0],"tree_param":{"num_deleted":"0","num_feature":"8","num_nodes":"25","size_leaf_vector":"1"}},{"base_weights":[5.3746615E-2,-2.3070805E-1,1.5435985E-1,-3.2388487E-1,6.0821217E-2,1.0332748E-2,4.1090643E-1,-5.397104E-1,7.728812E-2,8.4012195E-2,-8.268463E-2,1.9903548E-1,7.3431355E-1,5.809874E-2,-7.4615024E-2,4.470077E-2,-4.1136943E-2,-1.8442698E-2,3.000853E-2,5.789986E-2,-1.5739528E-2,9.967782E-2,-1.9414736E-2],"categories":[],"categories_nodes":[],"categories_segments":[],"categories_sizes":[],"default_left":[0,0,0,0,0,0,0,0,0,0,0,0,0,0,0,0,0,0,0,0,0,0,0],"id":51,"left_children":[1,3,5,7,-1,9,11,13,15,17,-1,19,21,-1,-1,-1,-1,-1,-1,-1,-1,-1,-1],"loss_changes":[1.8780113E0,1.5431321E0,1.7750133E0,1.440222E0,0E0,2.0350316E0,1.0384245E0,2.8922265E0,1.3626871E0,1.806776E0,0E0,1.6915076E0,1.7704234E0,0E0,0E0,0E0,0E0,0E0,0E0,0E0,0E0,0E0,0E0],"parents":[2147483647,0,0,1,1,2,2,3,3,5,5,6,6,7,7,8,8,9,9,11,11,12,12],"right_children":[2,4,6,8,-1,10,12,14,16,18,-1,20,22,-1,-1,-1,-1,-1,-1,-1,-1,-1,-1],"split_conditions":[2E0,1.74E2,1.34E2,3E1,6.0821217E-2,5.7E1,8E1,5.2E1,4.4E1,7.2E1,-8.268463E-2,1.4E1,1E1,5.809874E-2,-7.4615024E-2,4.470077E-2,-4.1136943E-2,-1.8442698E-2,3.000853E-2,5.789986E-2,-1.5739528E-2,9.967782E-2,-1.9414736E-2],"split_indices":[0,1,1,7,0,7,2,2,7,2,0,4,0,0,0,0,0,0,0,0,0,0,0],"split_type":[0,0,0,0,0,0,0,0,0,0,0,0,0,0,0,0,0,0,0,0,0,0,0],"sum_hessian":[6.3374744E1,1.6221148E1,4.71536E1,1.5152162E1,1.068987E0,3.0865665E1,1.6287931E1,9.627414E0,5.5247474E0,2.9195814E1,1.6698513E0,1.081695E1,5.470982E0,1.2153478E0,8.412066E0,3.1936536E0,2.3310935E0,1.3085481E1,1.6110332E1,4.9334006E0,5.8835487E0,4.2078834E0,1.2630988E0],"tree_param":{"num_deleted":"0","num_feature":"8","num_nodes":"23","size_leaf_vector":"1"}},{"base_weights":[-1.2200113E-2,-4.1316926E-2,7.703734E-2,-9.297336E-2,2.0490344E-1,-1.6747665E-2,-6.5040904E-1,6.5802205E-1,-2.7063468E-1,-9.25007E-3,5.9658784E-2,-8.88457E-2,1.6143017E-2,8.9158855E-2,2.2497313E-2,-5.152257E-2,3.1211069E-2],"categories":[],"categories_nodes":[],"categories_segments":[],"categories_sizes":[],"default_left":[0,0,0,0,0,0,0,0,0,0,0,0,0,0,0,0,0],"id":52,"left_children":[1,3,-1,5,7,9,11,13,15,-1,-1,-1,-1,-1,-1,-1,-1],"loss_changes":[1.5131156E0,8.28296E-1,0E0,2.2530158E0,2.6228175E0,2.2805767E0,1.3769453E0,4.165342E-1,1.0508642E0,0E0,0E0,0E0,0E0,0E0,0E0,0E0,0E0],"parents":[2147483647,0,0,1,1,3,3,4,4,5,5,6,6,7,7,8,8],"right_children":[2,4,-1,6,8,10,12,14,16,-1,-1,-1,-1,-1,-1,-1,-1],"split_conditions":[4.79E1,1.55E2,7.703734E-2,1.92E2,1.75E2,1.56E2,4.2E1,5E0,3.2E1,-9.25007E-3,5.9658784E-2,-8.88457E-2,1.6143017E-2,8.9158855E-2,2.2497313E-2,-5.152257E-2,3.1211069E-2],"split_indices":[5,1,0,4,1,4,3,0,3,0,0,0,0,0,0,0,0],"split_type":[0,0,0,0,0,0,0,0,0,0,0,0,0,0,0,0,0],"sum_hessian":[6.400848E1,6.26256E1,1.3828748E0,5.227982E1,1.034578E1,4.6897003E1,5.382815E0,5.1012707E0,5.24451E0,4.2497345E1,4.3996606E0,4.089356E0,1.2934588E0,2.6260417E0,2.4752288E0,3.7756515E0,1.4688588E0],"tree_param":{"num_deleted":"0","num_feature":"8","num_nodes":"17","size_leaf_vector":"1"}},{"base_weights":[-1.8734856E-2,-2.2905925E-1,7.638041E-2,-4.9936846E-1,5.0845265E-1,8.75123E-1,-2.1479765E-2,-8.9423895E-2,-3.1988016E-1,9.434107E-1,-4.7813833E-2,3.4130008E-3,1.1827435E-1,3.37505E-1,-1.2847584E-1,-1.3404908E-2,-1.035829E-1,4.0880304E-2,1.2069917E-1,-1.6659854E-2,8.149629E-2,-3.0166227E-2,2.1136262E-2],"categories":[],"categories_nodes":[],"categories_segments":[],"categories_sizes":[],"default_left":[0,0,0,0,0,0,0,0,0,0,0,0,0,0,0,0,0,0,0,0,0,0,0],"id":53,"left_children":[1,3,5,7,9,11,13,-1,15,17,-1,-1,-1,19,21,-1,-1,-1,-1,-1,-1,-1,-1],"loss_changes":[1.2956105E0,4.270049E0,3.5162168E0,7.9456186E-1,2.9823925E0,1.2292533E0,1.6118876E0,0E0,1.4628934E0,1.3085413E-1,0E0,0E0,0E0,2.4589808E0,1.9579673E0,0E0,0E0,0E0,0E0,0E0,0E0,0E0,0E0],"parents":[2147483647,0,0,1,1,2,2,3,3,4,4,5,5,6,6,8,8,9,9,13,13,14,14],"right_children":[2,4,6,8,10,12,14,-1,16,18,-1,-1,-1,20,22,-1,-1,-1,-1,-1,-1,-1,-1],"split_conditions":[3E1,8E0,3.12E1,2E0,5.4E1,3.1E1,6.8E1,-8.9423895E-2,3.2E1,2.77E1,-4.7813833E-2,3.4130008E-3,1.1827435E-1,6.1E1,4.2E1,-1.3404908E-2,-1.035829E-1,4.0880304E-2,1.2069917E-1,-1.6659854E-2,8.149629E-2,-3.0166227E-2,2.1136262E-2],"split_indices":[5,0,5,0,7,7,2,0,3,5,0,0,0,2,7,0,0,0,0,0,0,0,0],"split_type":[0,0,0,0,0,0,0,0,0,0,0,0,0,0,0,0,0,0,0,0,0,0,0],"sum_hessian":[6.2889572E1,1.9145563E1,4.374401E1,1.42467985E1,4.898765E0,3.907565E0,3.9836445E1,3.2077215E0,1.1039077E1,3.430242E0,1.4685228E0,1.3440534E0,2.5635116E0,8.652361E0,3.1184084E1,9.706817E0,1.3322608E0,1.9751352E0,1.455107E0,4.52544E0,4.126921E0,2.0731407E1,1.0452677E1],"tree_param":{"num_deleted":"0","num_feature":"8","num_nodes":"23","size_leaf_vector":"1"}},{"base_weights":[1.0714435E-1,-3.2679057E-1,1.6063242E-1,-6.020596E-1,2.81486E-2,2.1165815E-1,-3.0047074E-1,-8.385169E-2,7.252451E-4,-6.289942E-2,2.4020879E-1,-6.9817543E-1,1.696631E-1,5.0969817E-2,1.15917595E-2,-1.6512085E-2,-9.25997E-2,-4.8327155E-2,6.023413E-2],"categories":[],"categories_nodes":[],"categories_segments":[],"categories_sizes":[],"default_left":[0,0,0,0,0,0,0,0,0,0,0,0,0,0,0,0,0,0,0],"id":54,"left_children":[1,3,5,7,-1,9,11,-1,-1,-1,13,15,17,-1,-1,-1,-1,-1,-1],"loss_changes":[1.5488564E0,1.409233E0,1.4297684E0,7.8640187E-1,0E0,1.4199553E0,1.2774377E0,0E0,0E0,0E0,1.6777742E0,2.786373E-1,1.3208854E0,0E0,0E0,0E0,0E0,0E0,0E0],"parents":[2147483647,0,0,1,1,2,2,3,3,5,5,6,6,10,10,11,11,12,12],"right_children":[2,4,6,8,-1,10,12,-1,-1,-1,14,16,18,-1,-1,-1,-1,-1,-1],"split_conditions":[2.64E1,4.7E1,5.4E1,6.72E-1,2.81486E-2,1.26E-1,8.2E1,-8.385169E-2,7.252451E-4,-6.289942E-2,2.62E-1,7E0,4.2E-1,5.0969817E-2,1.15917595E-2,-1.6512085E-2,-9.25997E-2,-4.8327155E-2,6.023413E-2],"split_indices":[5,7,7,6,0,6,2,0,0,0,6,3,6,0,0,0,0,0,0],"split_type":[0,0,0,0,0,0,0,0,0,0,0,0,0,0,0,0,0,0,0],"sum_hessian":[6.3469685E1,6.404228E0,5.7065456E1,4.4160247E0,1.9882038E0,5.186684E1,5.198617E0,2.9104059E0,1.5056186E0,1.0128677E0,5.0853973E1,2.5534751E0,2.6451418E0,1.5072592E1,3.578138E1,1.2809956E0,1.2724797E0,1.0076354E0,1.6375066E0],"tree_param":{"num_deleted":"0","num_feature":"8","num_nodes":"19","size_leaf_vector":"1"}},{"base_weights":[4.6580475E-2,1.9308908E-2,7.032608E-2,-2.8206372E-1,7.809189E-2,-4.974752E-1,3.237682E-2,4.658239E-1,-3.5461053E-2,-7.8046724E-2,8.823022E-3,4.4760246E-2,-8.241227E-2,6.7205094E-2,-6.930658E-2,-1.9022213E-2,3.089927E-2],"categories":[],"categories_nodes":[],"categories_segments":[],"categories_sizes":[],"default_left":[0,0,0,0,0,0,0,0,0,0,0,0,0,0,0,0,0],"id":55,"left_children":[1,3,-1,5,7,9,11,13,15,-1,-1,-1,-1,-1,-1,-1,-1],"loss_changes":[1.1433654E0,1.1390773E0,0E0,7.2787917E-1,2.3740635E0,1.1126337E0,2.2221437E0,3.3815699E0,2.3161643E0,0E0,0E0,0E0,0E0,0E0,0E0,0E0,0E0],"parents":[2147483647,0,0,1,1,3,3,4,4,5,5,6,6,7,7,8,8],"right_children":[2,4,-1,6,8,10,12,14,16,-1,-1,-1,-1,-1,-1,-1,-1],"split_conditions":[1.3E1,2.19E-1,7.032608E-2,6E0,2.79E-1,1.92E-1,1.87E-1,3.7E1,3.5E1,-7.8046724E-2,8.823022E-3,4.4760246E-2,-8.241227E-2,6.7205094E-2,-6.930658E-2,-1.9022213E-2,3.089927E-2],"split_indices":[0,6,0,0,6,6,6,3,3,0,0,0,0,0,0,0,0],"split_type":[0,0,0,0,0,0,0,0,0,0,0,0,0,0,0,0,0],"sum_hessian":[6.360238E1,6.2054688E1,1.5476928E0,9.508332E0,5.2546356E1,5.2972717E0,4.21106E0,1.1200261E1,4.1346092E1,3.3474014E0,1.9498705E0,3.157654E0,1.053406E0,9.864875E0,1.3353862E0,2.8837381E1,1.2508713E1],"tree_param":{"num_deleted":"0","num_feature":"8","num_nodes":"17","size_leaf_vector":"1"}},{"base_weights":[-2.137544E-2,-4.8923377E-2,7.3237374E-2,-1.7876323E-2,-6.455382E-2,4.8121188E-2,-3.5888806E-1,-4.6249642E-4,5.6604903E-2,-5.49885E-2,5.094352E-2],"categories":[],"categories_nodes":[],"categories_segments":[],"categories_sizes":[],"default_left":[0,0,0,0,0,0,0,0,0,0,0],"id":56,"left_children":[1,3,-1,5,-1,7,9,-1,-1,-1,-1],"loss_changes":[1.3472813E0,1.1344786E0,0E0,1.3639731E0,0E0,1.3963264E0,1.9089246E0,0E0,0E0,0E0,0E0],"parents":[2147483647,0,0,1,1,3,3,5,5,6,6],"right_children":[2,4,-1,6,-1,8,10,-1,-1,-1,-1],"split_conditions":[4.68E1,6.3E1,7.3237374E-2,3.93E1,-6.455382E-2,3.78E1,8E0,-4.6249642E-4,5.6604903E-2,-5.49885E-2,5.094352E-2],"split_indices":[5,7,0,5,0,5,0,0,0,0,0],"split_type":[0,0,0,0,0,0,0,0,0,0,0],"sum_hessian":[6.215914E1,6.086958E1,1.2895613E0,5.8837708E1,2.0318742E0,5.001665E1,8.821057E0,4.6293186E1,3.723462E0,7.5312138E0,1.2898431E0],"tree_param":{"num_deleted":"0","num_feature":"8","num_nodes":"11","size_leaf_vector":"1"}},{"base_weights":[-2.3318026E-2,-3.0839E-1,1.0660415E-1,-8.5822254E-2,-5.6472477E-2,1.988333E-1,-3.1130147E-1,8.367404E-2,-2.1189514E-1,-1.3339777E-1,3.2769588E-1,-4.4837317E-1,2.445492E-2,-6.7547105E-2,2.0128073E-2,1.0767601E-2,-7.6941535E-2,-2.7341783E-2,5.463632E-2,-9.405266E-2,-1.1996389E-2],"categories":[],"categories_nodes":[],"categories_segments":[],"categories_sizes":[],"default_left":[0,0,0,0,0,0,0,0,0,0,0,0,0,0,0,0,0,0,0,0,0],"id":57,"left_children":[1,3,5,-1,7,9,11,-1,13,15,17,19,-1,-1,-1,-1,-1,-1,-1,-1,-1],"loss_changes":[2.246635E0,2.579042E0,1.6730679E0,0E0,2.1318982E0,1.5359118E0,7.15163E-1,0E0,2.585863E0,1.6853538E0,3.488455E0,9.746169E-1,0E0,0E0,0E0,0E0,0E0,0E0,0E0,0E0,0E0],"parents":[2147483647,0,0,1,1,2,2,4,4,5,5,6,6,8,8,9,9,10,10,11,11],"right_children":[2,4,6,-1,8,10,12,-1,14,16,18,20,-1,-1,-1,-1,-1,-1,-1,-1,-1],"split_conditions":[2.9E1,3.11E1,8.8E1,-8.5822254E-2,2.1E-1,2.54E-1,8E0,8.367404E-2,5.01E-1,3.51E1,7E1,3E1,2.445492E-2,-6.7547105E-2,2.0128073E-2,1.0767601E-2,-7.6941535E-2,-2.7341783E-2,5.463632E-2,-9.405266E-2,-1.1996389E-2],"split_indices":[7,5,2,0,6,6,0,0,6,5,2,5,0,0,0,0,0,0,0,0,0],"split_type":[0,0,0,0,0,0,0,0,0,0,0,0,0,0,0,0,0,0,0,0,0],"sum_hessian":[5.8771294E1,1.7969475E1,4.080182E1,4.889953E0,1.3079521E1,3.3854546E1,6.947271E0,1.2888521E0,1.17906685E1,9.451549E0,2.4402998E1,5.7280917E0,1.2191794E0,5.2572746E0,6.5333943E0,7.4561133E0,1.9954352E0,6.4424376E0,1.7960562E1,1.54655E0,4.1815414E0],"tree_param":{"num_deleted":"0","num_feature":"8","num_nodes":"21","size_leaf_vector":"1"}},{"base_weights":[1.780881E-2,-8.78362E-3,7.214507E-2,2.6761442E-2,-6.727072E-1,4.216126E-1,-2.6128434E-2,-4.16183E-3,-9.64825E-2,-1.2533582E-2,6.044292E-2,-3.4800623E-2,3.5559924E-3],"categories":[],"categories_nodes":[],"categories_segments":[],"categories_sizes":[],"default_left":[0,0,0,0,0,0,0,0,0,0,0,0,0],"id":58,"left_children":[1,3,-1,5,7,9,11,-1,-1,-1,-1,-1,-1],"loss_changes":[1.191543E0,1.4816778E0,0E0,1.2605288E0,5.4794E-1,7.883035E-1,1.078769E0,0E0,0E0,0E0,0E0,0E0,0E0],"parents":[2147483647,0,0,1,1,3,3,4,4,5,5,6,6],"right_children":[2,4,-1,6,8,10,12,-1,-1,-1,-1,-1,-1],"split_conditions":[4.83E1,4.45E1,7.214507E-2,1E0,5.54E-1,3.13E1,2E0,-4.16183E-3,-9.64825E-2,-1.2533582E-2,6.044292E-2,-3.4800623E-2,3.5559924E-3],"split_indices":[5,5,0,0,6,5,0,0,0,0,0,0,0],"split_type":[0,0,0,0,0,0,0,0,0,0,0,0,0],"sum_hessian":[6.2340893E1,6.1022224E1,1.3186693E0,5.8832165E1,2.1900575E0,6.1260934E0,5.2706074E1,1.0544668E0,1.1355907E0,1.6134402E0,4.512653E0,7.7301745E0,4.49759E1],"tree_param":{"num_deleted":"0","num_feature":"8","num_nodes":"13","size_leaf_vector":"1"}},{"base_weights":[7.772636E-2,5.2690282E-2,6.947113E-2,-3.9784532E-2,2.1231249E-1,8.553799E-2,-5.028268E-1,-4.8228133E-1,3.859002E-1,2.512574E-2,-3.0958597E-2,-8.049854E-2,7.1056694E-2,-8.314474E-2,7.878083E-3,1.02448896E-1,3.3692725E-3],"categories":[],"categories_nodes":[],"categories_segments":[],"categories_sizes":[],"default_left":[0,0,0,0,0,0,0,0,0,0,0,0,0,0,0,0,0],"id":59,"left_children":[1,3,-1,5,7,9,11,13,15,-1,-1,-1,-1,-1,-1,-1,-1],"loss_changes":[8.9488316E-1,8.798373E-1,0E0,2.2609415E0,2.8161097E0,2.10335E0,3.6101143E0,1.0069711E0,4.015478E0,0E0,0E0,0E0,0E0,0E0,0E0,0E0,0E0],"parents":[2147483647,0,0,1,1,3,3,4,4,5,5,6,6,7,7,8,8],"right_children":[2,4,-1,6,8,10,12,14,16,-1,-1,-1,-1,-1,-1,-1,-1],"split_conditions":[1.3E1,5.03E-1,6.947113E-2,3.75E-1,6.1E1,3.51E1,1.48E2,1.28E2,7.2E1,2.512574E-2,-3.0958597E-2,-8.049854E-2,7.1056694E-2,-8.314474E-2,7.878083E-3,1.02448896E-1,3.3692725E-3],"split_indices":[0,6,0,6,2,5,1,1,2,0,0,0,0,0,0,0,0],"split_type":[0,0,0,0,0,0,0,0,0,0,0,0,0,0,0,0,0],"sum_hessian":[5.9302643E1,5.8033165E1,1.2694758E0,3.722067E1,2.0812496E1,2.993423E1,7.2864385E0,3.8057709E0,1.7006725E1,2.1345707E1,8.588523E0,6.103205E0,1.1832333E0,2.0488145E0,1.7569562E0,5.3670115E0,1.1639714E1],"tree_param":{"num_deleted":"0","num_feature":"8","num_nodes":"17","size_leaf_vector":"1"}},{"base_weights":[7.2535644E-3,-6.862773E-2,2.9852733E-1,-1.3197858E-2,-8.922015E-1,-2.7530685E-1,4.3583816E-1,-8.912655E-2,4.4332233E-1,-1.09670594E-1,-2.7568487E-2,1.1781171E-2,-5.20993E-2,5.940143E-1,-7.624355E-2,4.542942E-2,-1.6067147E-2,8.5884717E-4,1.0814897E-1,8.074594E-2,2.0582868E-2,-4.861174E-2,2.930831E-2],"categories":[],"categories_nodes":[],"categories_segments":[],"categories_sizes":[],"default_left":[0,0,0,0,0,0,0,0,0,0,0,0,0,0,0,0,0,0,0,0,0,0,0],"id":60,"left_children":[1,3,5,7,9,11,13,15,17,-1,-1,-1,-1,19,21,-1,-1,-1,-1,-1,-1,-1,-1],"loss_changes":[1.402703E0,2.290185E0,1.1531119E0,1.7123756E0,9.667635E-2,3.650907E-1,9.33624E-1,1.714125E0,1.9464798E0,0E0,0E0,0E0,0E0,5.3748274E-1,6.6842306E-1,0E0,0E0,0E0,0E0,0E0,0E0,0E0,0E0],"parents":[2147483647,0,0,1,1,2,2,3,3,4,4,5,5,6,6,7,7,8,8,13,13,14,14],"right_children":[2,4,6,8,10,12,14,16,18,-1,-1,-1,-1,20,22,-1,-1,-1,-1,-1,-1,-1,-1],"split_conditions":[4.6E1,4.4E1,7.2E1,4.1E1,8E0,5.6E1,8.8E1,5.4E1,8.1E1,-1.09670594E-1,-2.7568487E-2,1.1781171E-2,-5.20993E-2,5.4E1,9.2E1,4.542942E-2,-1.6067147E-2,8.5884717E-4,1.0814897E-1,8.074594E-2,2.0582868E-2,-4.861174E-2,2.930831E-2],"split_indices":[7,7,2,7,0,7,2,2,4,0,0,0,0,7,2,0,0,0,0,0,0,0,0],"split_type":[0,0,0,0,0,0,0,0,0,0,0,0,0,0,0,0,0,0,0,0,0,0,0],"sum_hessian":[6.1537388E1,4.9425636E1,1.2111752E1,4.7260815E1,2.1648207E0,2.1445396E0,9.967212E0,4.12113E1,6.049516E0,1.0407268E0,1.1240939E0,1.0249739E0,1.1195658E0,7.4927797E0,2.474432E0,4.17212E0,3.703918E1,4.2010946E0,1.8484216E0,4.1376133E0,3.355166E0,1.0229497E0,1.4514823E0],"tree_param":{"num_deleted":"0","num_feature":"8",